
\data\
ngram 1=123
ngram 2=4839
ngram 3=15974

\1-grams:
-1.883553	</s>
-99	<s>	-1.344953
-3.229774	A#aug	-0.352219
-3.327597	A#dim	-0.4623649
-1.295403	A#maj	-0.6714642
-2.785493	A#maj6	-0.6614865
-2.8282	A#maj7	-0.7108311
-1.842175	A#min	-0.6430495
-2.530075	A#min7	-0.5734047
-3.132135	A#ninth	-0.7116331
-2.237135	A#seventh	-0.6474025
-3.026567	A#sus4	-1.255638
-3.229774	Aaug	-0.352219
-3.327597	Adim	-0.4623649
-1.295403	Amaj	-0.6714642
-2.785493	Amaj6	-0.6614865
-2.8282	Amaj7	-0.7108311
-1.842175	Amin	-0.6430495
-2.530075	Amin7	-0.5734047
-3.132135	Aninth	-0.7116331
-2.237135	Aseventh	-0.6474025
-3.026567	Asus4	-1.255638
-3.229774	Baug	-0.352219
-3.327597	Bdim	-0.4623649
-1.295403	Bmaj	-0.6714642
-2.785493	Bmaj6	-0.6614865
-2.8282	Bmaj7	-0.7108311
-1.842175	Bmin	-0.6430495
-2.530075	Bmin7	-0.5734047
-3.132135	Bninth	-0.7116331
-2.237135	Bseventh	-0.6474025
-3.026567	Bsus4	-1.255638
-3.229774	C#aug	-0.352219
-3.327597	C#dim	-0.4623649
-1.295403	C#maj	-0.6714642
-2.785493	C#maj6	-0.6614865
-2.8282	C#maj7	-0.7108311
-1.842175	C#min	-0.6430495
-2.530075	C#min7	-0.5734047
-3.132135	C#ninth	-0.7116331
-2.237135	C#seventh	-0.6474025
-3.026567	C#sus4	-1.255638
-3.229774	Caug	-0.352219
-3.327597	Cdim	-0.4623649
-1.295403	Cmaj	-0.6714642
-2.785493	Cmaj6	-0.6614865
-2.8282	Cmaj7	-0.7108311
-1.842175	Cmin	-0.6430495
-2.530075	Cmin7	-0.5734047
-3.132135	Cninth	-0.7116331
-2.237135	Cseventh	-0.6474025
-3.026567	Csus4	-1.255638
-3.229774	D#aug	-0.352219
-3.327597	D#dim	-0.4623649
-1.295403	D#maj	-0.6714642
-2.785493	D#maj6	-0.6614865
-2.8282	D#maj7	-0.7108311
-1.842175	D#min	-0.6430495
-2.530075	D#min7	-0.5734047
-3.132135	D#ninth	-0.7116331
-2.237135	D#seventh	-0.6474025
-3.026567	D#sus4	-1.255638
-3.229774	Daug	-0.352219
-3.327597	Ddim	-0.4623649
-1.295403	Dmaj	-0.6714642
-2.785493	Dmaj6	-0.6614865
-2.8282	Dmaj7	-0.7108311
-1.842175	Dmin	-0.6430495
-2.530075	Dmin7	-0.5734047
-3.132135	Dninth	-0.7116331
-2.237135	Dseventh	-0.6474025
-3.026567	Dsus4	-1.255638
-3.229774	Eaug	-0.352219
-3.327597	Edim	-0.4623649
-1.295403	Emaj	-0.6714642
-2.785493	Emaj6	-0.6614865
-2.8282	Emaj7	-0.7108311
-1.842175	Emin	-0.6430495
-2.530075	Emin7	-0.5734047
-3.132135	Eninth	-0.7116331
-2.237135	Eseventh	-0.6474025
-3.026567	Esus4	-1.255638
-3.229774	F#aug	-0.352219
-3.327597	F#dim	-0.4623649
-1.295403	F#maj	-0.6714642
-2.785493	F#maj6	-0.6614865
-2.8282	F#maj7	-0.7108311
-1.842175	F#min	-0.6430495
-2.530075	F#min7	-0.5734047
-3.132135	F#ninth	-0.7116331
-2.237135	F#seventh	-0.6474025
-3.026567	F#sus4	-1.255638
-3.229774	Faug	-0.352219
-3.327597	Fdim	-0.4623649
-1.295403	Fmaj	-0.6714642
-2.785493	Fmaj6	-0.6614865
-2.8282	Fmaj7	-0.7108311
-1.842175	Fmin	-0.6430495
-2.530075	Fmin7	-0.5734047
-3.132135	Fninth	-0.7116331
-2.237135	Fseventh	-0.6474025
-3.026567	Fsus4	-1.255638
-3.229774	G#aug	-0.352219
-3.327597	G#dim	-0.4623649
-1.295403	G#maj	-0.6714642
-2.785493	G#maj6	-0.6614865
-2.8282	G#maj7	-0.7108311
-1.842175	G#min	-0.6430495
-2.530075	G#min7	-0.5734047
-3.132135	G#ninth	-0.7116331
-2.237135	G#seventh	-0.6474025
-3.026567	G#sus4	-1.255638
-3.229774	Gaug	-0.352219
-3.327597	Gdim	-0.4623649
-1.295403	Gmaj	-0.6714642
-2.785493	Gmaj6	-0.6614865
-2.8282	Gmaj7	-0.7108311
-1.842175	Gmin	-0.6430495
-2.530075	Gmin7	-0.5734047
-3.132135	Gninth	-0.7116331
-2.237135	Gseventh	-0.6474025
-3.026567	Gsus4	-1.255638
-1.505085	N	-0.2828976

\2-grams:
-2.524558	<s> A#maj	-0.06372125
-3.427648	<s> A#maj6
-3.427648	<s> A#min7
-2.524558	<s> Amaj	-0.06372125
-3.427648	<s> Amaj6
-3.427648	<s> Amin7
-2.524558	<s> Bmaj	-0.06372125
-3.427648	<s> Bmaj6
-3.427648	<s> Bmin7
-2.524558	<s> C#maj	-0.06372125
-3.427648	<s> C#maj6
-3.427648	<s> C#min7
-2.524558	<s> Cmaj	-0.06372125
-3.427648	<s> Cmaj6
-3.427648	<s> Cmin7
-2.524558	<s> D#maj	-0.06372125
-3.427648	<s> D#maj6
-3.427648	<s> D#min7
-2.524558	<s> Dmaj	-0.06372125
-3.427648	<s> Dmaj6
-3.427648	<s> Dmin7
-2.524558	<s> Emaj	-0.06372125
-3.427648	<s> Emaj6
-3.427648	<s> Emin7
-2.524558	<s> F#maj	-0.06372125
-3.427648	<s> F#maj6
-3.427648	<s> F#min7
-2.524558	<s> Fmaj	-0.06372125
-3.427648	<s> Fmaj6
-3.427648	<s> Fmin7
-2.524558	<s> G#maj	-0.06372125
-3.427648	<s> G#maj6
-3.427648	<s> G#min7
-2.524558	<s> Gmaj	-0.06372125
-3.427648	<s> Gmaj6
-3.427648	<s> Gmin7
-0.02624783	<s> N	-0.9835855
-1.675167	A#aug A#maj	-0.2015171
-1.550228	A#aug A#min	-0.2794382
-1.374137	A#aug Amaj	-0.8380982
-1.374137	A#aug Bmaj	-0.1563863
-1.550228	A#aug Bmaj6	-0.6756219
-1.675167	A#aug Bmin	-0.6005948
-1.249198	A#aug Bseventh	-0.9241272
-1.374137	A#aug C#maj	-0.5948891
-2.152288	A#aug Cmin
-1.550228	A#aug Cseventh	-0.6910931
-1.550228	A#aug D#maj	-0.1257964
-1.675167	A#aug D#maj7	-0.2178826
-0.8970158	A#aug D#min	-0.6203139
-1.073107	A#aug D#min7	-0.5194033
-1.374137	A#aug Dmaj	-0.4056371
-1.374137	A#aug Dseventh	-0.5611637
-1.851258	A#aug Edim	-0.4534266
-1.851258	A#aug Emaj	-0.4366156
-1.675167	A#aug Emin	-0.218766
-2.152288	A#aug F#maj
-1.851258	A#aug G#maj	-0.4617009
-1.30719	A#aug Gmaj	-0.5213738
-1.453318	A#aug Gmin	-0.2017732
-1.851258	A#aug Gmin7	-0.4730497
-1.354108	A#dim A#maj	-0.3269627
-1.274927	A#dim Amaj	-0.5835326
-1.752048	A#dim Amin	-0.4493363
-0.9069504	A#dim Amin7	-0.5549778
-1.149988	A#dim Bdim	-0.6001341
-0.8769872	A#dim Bmaj	-0.4775699
-0.8769872	A#dim Bmin	-0.5132651
-2.053078	A#dim C#min
-2.053078	A#dim Cmin
-2.053078	A#dim Cmin7
-1.575957	A#dim D#maj	-0.5897245
-1.752048	A#dim D#seventh	-0.4377817
-1.451018	A#dim Dmaj	-0.03194055
-1.575957	A#dim Edim	-0.5402076
-1.752048	A#dim Fmaj	-0.4728075
-1.274927	A#dim G#maj	-0.4093039
-1.752048	A#dim Gmaj
-2.053078	A#dim Gseventh
-1.575957	A#dim N	-0.4231767
-2.536558	A#maj </s>
-3.536558	A#maj A#aug	-0.1629821
-3.01368	A#maj A#dim	-0.2452287
-1.045197	A#maj A#maj	-0.0352205
-3.168582	A#maj A#maj6	-0.2283796
-1.980256	A#maj A#maj7	-0.5213432
-2.162421	A#maj A#min	-0.5579545
-4.01368	A#maj A#min7
-3.059437	A#maj A#ninth	-0.251812
-1.806854	A#maj A#seventh	-0.3117301
-2.242828	A#maj A#sus4	-0.1246631
-4.01368	A#maj Aaug
-3.41162	A#maj Adim	-0.6752753
-2.00508	A#maj Amaj	-0.2948124
-2.306109	A#maj Amin	-0.3707472
-3.01368	A#maj Amin7	-0.1836056
-3.41162	A#maj Aninth	-0.486498
-2.671257	A#maj Aseventh	-0.3594209
-4.01368	A#maj Asus4
-2.837589	A#maj Bdim	-0.7954186
-2.132866	A#maj Bmaj	-0.1465344
-4.01368	A#maj Bmin
-3.71265	A#maj Bmin7
-3.31471	A#maj Bseventh	-0.1441976
-3.536558	A#maj C#aug	-0.5927865
-3.31471	A#maj C#dim	-0.3105335
-1.780684	A#maj C#maj	-0.3707873
-2.899736	A#maj C#maj6	-0.4834556
-3.168582	A#maj C#min	-0.273245
-3.235528	A#maj C#seventh	-0.2193579
-3.31471	A#maj Caug	-0.3555675
-3.41162	A#maj Cdim	-0.6670809
-1.050364	A#maj Cmaj	-0.4118493
-3.235528	A#maj Cmaj6	-0.1488784
-1.457377	A#maj Cmin	-0.2524326
-2.250252	A#maj Cmin7	-0.5133184
-3.235528	A#maj Cninth	-0.4128471
-2.200766	A#maj Cseventh	-0.300073
-2.934499	A#maj Csus4	-0.2818751
-3.41162	A#maj D#aug	-0.6834022
-0.6360093	A#maj D#maj	-0.1833864
-2.39043	A#maj D#maj6	-0.4376982
-2.633468	A#maj D#maj7	-0.4592097
-1.552782	A#maj D#min	-0.4385751
-3.11059	A#maj D#min7	-0.4999976
-3.168582	A#maj D#ninth	-0.4322246
-2.054638	A#maj D#seventh	-0.4607308
-3.41162	A#maj D#sus4	0.5310382
-3.11059	A#maj Daug	-0.5292543
-3.71265	A#maj Ddim	-0.4152689
-2.00508	A#maj Dmaj	-0.7838675
-1.796196	A#maj Dmin	-0.4450805
-2.598706	A#maj Dmin7	-0.3486409
-2.783231	A#maj Dseventh	-0.936047
-3.168582	A#maj Dsus4	0.3549469
-3.71265	A#maj Edim	-0.4693658
-2.633468	A#maj Emaj	-0.2435187
-3.41162	A#maj Emin	-0.690402
-3.41162	A#maj Eninth	-0.2932046
-3.41162	A#maj Eseventh	-0.2985391
-3.31471	A#maj Esus4	0.05391693
-3.01368	A#maj F#aug	-0.7364526
-2.105195	A#maj F#maj	-0.3188396
-3.71265	A#maj F#min
-3.536558	A#maj F#ninth	-0.5942347
-3.536558	A#maj F#seventh	-0.220783
-3.01368	A#maj Faug	-0.466805
-0.7625284	A#maj Fmaj	-0.3203102
-3.11059	A#maj Fmaj6	-0.1787607
-3.536558	A#maj Fmaj7	-0.5954294
-1.934498	A#maj Fmin	-0.6026081
-2.80956	A#maj Fmin7	-0.411149
-2.433896	A#maj Fninth	-0.3927389
-2.162421	A#maj Fseventh	-0.4641563
-3.536558	A#maj G#dim	-0.1644055
-1.302717	A#maj G#maj	-0.416241
-3.71265	A#maj G#maj6	-0.4422595
-3.31471	A#maj G#maj7	-0.7715207
-2.734926	A#maj G#min	-0.3130755
-3.536558	A#maj G#min7	-0.2191386
-2.482201	A#maj G#seventh	-0.3143423
-3.235528	A#maj G#sus4	0.4060995
-4.01368	A#maj Gaug
-1.812283	A#maj Gmaj	-0.3066447
-1.339738	A#maj Gmin	-0.4447511
-2.132866	A#maj Gmin7	-0.2882024
-3.235528	A#maj Gninth	-0.3723859
-2.41162	A#maj Gseventh	-0.3149241
-4.01368	A#maj Gsus4
-1.728122	A#maj N	-0.4535125
-2.559907	A#maj6 </s>
-1.258877	A#maj6 A#maj	-0.2833582
-1.304634	A#maj6 A#maj6	-0.5678459
-2.559907	A#maj6 A#maj7
-1.355787	A#maj6 A#min	-0.7250471
-2.082785	A#maj6 A#seventh	-0.06654111
-1.957847	A#maj6 Amaj6	-0.4662179
-1.714809	A#maj6 Bmaj6	-0.3845761
-1.281153	A#maj6 Cmaj	-0.2611245
-1.714809	A#maj6 Cmaj6	-0.2925734
-1.860937	A#maj6 Cmin	-0.7360998
-1.559907	A#maj6 Cmin7	-0.440865
-2.258877	A#maj6 Cninth	-0.2646492
-1.714809	A#maj6 Cseventh	0.08275698
-0.8040318	A#maj6 D#maj	-0.396109
-1.518514	A#maj6 D#maj6	-0.5105007
-1.258877	A#maj6 D#maj7	-0.3164151
-1.860937	A#maj6 D#seventh	-0.6228436
-2.559907	A#maj6 Dmaj
-2.559907	A#maj6 Emin
-2.559907	A#maj6 F#maj
-2.559907	A#maj6 F#min
-1.112749	A#maj6 Fmaj	-0.4384902
-2.559907	A#maj6 Fmaj6
-2.559907	A#maj6 Fmin
-1.217484	A#maj6 Fmin7	-0.587523
-1.860937	A#maj6 G#maj	-0.1995511
-2.258877	A#maj6 G#maj6	-0.4686646
-1.480725	A#maj6 Gmaj	-0.6279927
-1.383815	A#maj6 Gmin	-0.366059
-1.329458	A#maj6 Gmin7	-0.5142151
-2.258877	A#maj6 Gseventh
-1.656817	A#maj6 N	-0.3411991
-2.217484	A#maj7 </s>
-1.819544	A#maj7 A#maj	-0.2588117
-0.9387304	A#maj7 A#maj6	-0.5326035
-1.314394	A#maj7 A#maj7	-0.4195052
-2.518514	A#maj7 A#min
-1.673416	A#maj7 A#seventh	-0.1616615
-2.518514	A#maj7 Amaj
-1.564271	A#maj7 Amin	-0.3202155
-1.673416	A#maj7 Amin7	-0.8780677
-1.740363	A#maj7 Asus4	-0.01302981
-1.819544	A#maj7 Cmaj	-0.7371372
-2.518514	A#maj7 Cmaj6
-2.041393	A#maj7 Cmin	-0.5946839
-1.564271	A#maj7 Cmin7	-0.9911296
-1.439333	A#maj7 Cseventh	-0.265044
-1.819544	A#maj7 D#maj	-0.08881282
-1.217484	A#maj7 D#maj7	-0.5011957
-2.217484	A#maj7 Dmaj	-0.4647858
-1.615424	A#maj7 Dmin	-0.05891784
-2.041393	A#maj7 Dmin7	-0.2122884
-2.041393	A#maj7 Edim	-0.5903742
-1	A#maj7 Fmaj	-0.2584057
-2.518514	A#maj7 Fmaj6
-1.518514	A#maj7 Fmaj7	-0.7083436
-2.518514	A#maj7 Fninth
-1.819544	A#maj7 Fseventh	-0.5419339
-2.217484	A#maj7 Gmaj	-0.4732747
-0.8464161	A#maj7 Gmin	-0.5966878
-1.056116	A#maj7 Gmin7	-0.3991091
-2.217484	A#maj7 Gseventh	-0.4454821
-1.740363	A#maj7 N	-0.2470855
-2.995489	A#min </s>
-2.77364	A#min A#dim	-0.3442821
-2.26849	A#min A#maj	-0.200772
-1.314248	A#min A#min	-0.2703753
-1.981248	A#min A#min7	-0.2783163
-2.87055	A#min A#seventh	-0.4692443
-2.47261	A#min Aaug	-0.7398062
-2.431217	A#min Adim	-0.6841142
-2.627512	A#min Amaj
-1.892827	A#min Amin	-0.8134915
-3.17158	A#min Bdim	-0.4693658
-1.77364	A#min Bmaj	-0.3739272
-2.431217	A#min Bmaj7	-0.490937
-2.995489	A#min Bmin
-2.518368	A#min C#aug	-0.5736232
-2.995489	A#min C#dim	-0.5903742
-1.06099	A#min C#maj	-0.3231162
-1.538112	A#min C#maj6	-0.7056187
-2.87055	A#min C#maj7	-0.4254749
-2.17158	A#min C#min	-1.010163
-2.17158	A#min C#seventh	-0.880468
-1.701758	A#min Cmaj	-0.5172702
-1.77364	A#min Cmin	-0.5187931
-3.17158	A#min Cmin7	-0.4757683
-2.17158	A#min Cninth	-1.267172
-2.130188	A#min Cseventh	-0.6552054
-2.518368	A#min Csus4	0.2530736
-0.9514721	A#min D#maj	-0.7188796
-3.17158	A#min D#maj6
-0.9322807	A#min D#min	-0.5415743
-1.96746	A#min D#min7	-0.3616217
-2.17158	A#min D#ninth	-0.2769227
-1.709182	A#min D#seventh	-0.6087934
-2.057637	A#min D#sus4	0.2944663
-2.87055	A#min Dmaj	-0.6922268
-2.694459	A#min Dmin	-0.422886
-3.47261	A#min Dseventh
-3.47261	A#min Eaug
-3.17158	A#min Emaj	-0.4749697
-1.051006	A#min F#maj	-0.5674877
-3.17158	A#min F#maj6
-2.130188	A#min F#maj7	-0.3588574
-2.150391	A#min F#min	-0.5361238
-3.47261	A#min F#min7
-2.77364	A#min F#ninth	-0.5656792
-2.150391	A#min F#seventh	-0.7349095
-2.130188	A#min Faug	-0.5501422
-1.207792	A#min Fmaj	-0.3529913
-1.182576	A#min Fmin	-0.3230419
-1.881546	A#min Fseventh	-0.9258142
-2.77364	A#min Fsus4	0.05391693
-3.17158	A#min G#aug	-0.4583718
-1.03486	A#min G#maj	-0.2450745
-3.47261	A#min G#maj6
-3.17158	A#min G#maj7	-0.455537
-1.782414	A#min G#min	-0.4074863
-2.518368	A#min G#min7	-0.6940795
-2.431217	A#min G#seventh	-0.4815145
-3.47261	A#min Gdim
-2.995489	A#min Gmaj	-0.4878725
-3.17158	A#min Gmin	-0.4698939
-3.17158	A#min Gmin7
-3.47261	A#min Gninth
-2.694459	A#min Gseventh	-0.4344019
-1.96746	A#min N	-0.3775735
-2.109241	A#min7 A#maj	-0.5025912
-2.206151	A#min7 A#maj6	-0.6768825
-1.63212	A#min7 A#min	-0.2689091
-1.002031	A#min7 A#min7	-0.4854829
-2.507181	A#min7 Aaug	-0.4583718
-2.03006	A#min7 Amaj	-0.3069391
-2.206151	A#min7 Bdim	-0.08427567
-1.808211	A#min7 Bmaj	-0.2876604
-2.507181	A#min7 Bmaj7	-0.4313638
-2.808211	A#min7 Bmin7
-2.808211	A#min7 Bseventh
-2.03006	A#min7 C#aug	-0.3366148
-1.264143	A#min7 C#maj	-0.2912982
-2.03006	A#min7 C#maj7	-0.4193382
-2.507181	A#min7 C#min	-0.4493363
-2.206151	A#min7 C#seventh	-0.5436624
-2.03006	A#min7 Cmaj	-0.35193
-2.03006	A#min7 Cmin	-0.8378707
-1.694268	A#min7 Cmin7	-0.3516998
-2.33109	A#min7 Cseventh	-0.2150544
-1.00887	A#min7 D#maj	-0.3588845
-1.289697	A#min7 D#maj6	-0.8117523
-1.662083	A#min7 D#min	-0.8419311
-1.662083	A#min7 D#min7	-0.2569952
-2.507181	A#min7 D#ninth	-0.2646492
-1.083935	A#min7 D#seventh	-0.2183003
-1.361053	A#min7 D#sus4	-0.6303298
-2.33109	A#min7 Edim	-0.2061968
-1.604091	A#min7 Emaj	-0.7376456
-2.808211	A#min7 Eseventh
-1.853969	A#min7 F#maj	-0.3278933
-2.109241	A#min7 F#maj7	-0.09305766
-2.507181	A#min7 F#min
-2.507181	A#min7 F#seventh
-1.72903	A#min7 Fmaj	-0.5643288
-1.529457	A#min7 Fmin	-0.2805967
-2.03006	A#min7 Fmin7	-0.1672208
-1.963113	A#min7 Fseventh	-0.4377817
-1.240009	A#min7 G#maj	-0.2229164
-1.63212	A#min7 G#maj6	-0.3831637
-1.694268	A#min7 G#maj7	-0.275451
-2.507181	A#min7 G#min
-1.251908	A#min7 G#min7	-0.3861448
-2.808211	A#min7 G#ninth
-2.808211	A#min7 G#seventh
-2.808211	A#min7 G#sus4
-2.808211	A#min7 Gmaj6
-2.206151	A#min7 N
-1.748188	A#ninth </s>
-1.623249	A#ninth A#maj	-0.2942013
-1.748188	A#ninth A#min7	-0.5938784
-1.924279	A#ninth A#ninth	-0.2646492
-1.924279	A#ninth A#seventh	-0.3218136
-1.526339	A#ninth C#maj7	-0.7323938
-1.924279	A#ninth Cmin	-0.4493363
-1.924279	A#ninth Cseventh
-0.4123959	A#ninth D#maj	-0.2245421
-1.623249	A#ninth D#min	-0.1455425
-2.225309	A#ninth D#seventh
-0.9242793	A#ninth Eseventh	-0.858507
-1.447158	A#ninth Fmaj	-0.1312057
-1.526339	A#ninth Fmin	-0.2011846
-2.225309	A#ninth Fmin7
-1.271067	A#ninth G#maj	-0.1864709
-1.748188	A#ninth G#min	-0.5991246
-1.526339	A#ninth G#ninth	-0.762357
-1.924279	A#ninth Gmaj	-0.4732747
-1.623249	A#ninth N	-0.1221467
-3.087781	A#seventh </s>
-1.569268	A#seventh A#maj	-0.367335
-2.388811	A#seventh A#maj6	-0.2937916
-2.61066	A#seventh A#min7	-0.2136671
-2.61066	A#seventh A#ninth
-1.30963	A#seventh A#seventh	-0.3360728
-3.087781	A#seventh A#sus4
-1.809028	A#seventh Aaug	-0.9480822
-2.61066	A#seventh Amaj	-0.2214277
-3.087781	A#seventh Amaj7
-2.61066	A#seventh Amin	-0.2180288
-1.973838	A#seventh Aseventh	-0.3155536
-3.087781	A#seventh Asus4
-2.485721	A#seventh Bdim	-0.1224334
-2.242683	A#seventh Bmaj	-0.1399269
-3.087781	A#seventh Bmaj6
-3.087781	A#seventh Bseventh
-1.745359	A#seventh C#maj	-0.2588285
-2.485721	A#seventh C#min	-0.2997115
-1.883661	A#seventh C#seventh	-0.5516652
-3.087781	A#seventh C#sus4
-1.745359	A#seventh Cmaj	-0.5260461
-2.046389	A#seventh Cmin	-0.3431335
-2.786752	A#seventh Cmin7
-3.087781	A#seventh Cninth
-2.133539	A#seventh Cseventh	-0.2631308
-2.388811	A#seventh Csus4	0.05391693
-0.5219336	A#seventh D#maj	0.0892747
-2.61066	A#seventh D#maj7	-0.5749078
-1.062476	A#seventh D#min	-0.2500459
-1.973838	A#seventh D#min7	-0.315454
-2.30963	A#seventh D#ninth	-0.1311946
-1.153283	A#seventh D#seventh	-0.3121472
-2.046389	A#seventh D#sus4	-0.247113
-2.388811	A#seventh Dmaj	-0.490002
-1.765562	A#seventh Dmin	-0.4677639
-2.485721	A#seventh Dmin7	-0.1434179
-2.786752	A#seventh Dseventh	-0.4377817
-3.087781	A#seventh Emaj
-2.786752	A#seventh Emin7	-0.4744112
-2.184691	A#seventh F#maj	-0.3338454
-1.173968	A#seventh Fmaj	-0.04624331
-1.809028	A#seventh Fmin	-0.4418085
-1.973838	A#seventh Fmin7	-0.3650725
-1.242683	A#seventh Fseventh	-0.4083283
-1.70757	A#seventh G#maj	0.05462998
-3.087781	A#seventh G#maj6
-2.046389	A#seventh G#maj7	-0.3149064
-2.786752	A#seventh G#ninth	-0.4719201
-1.786751	A#seventh G#seventh	-0.7115591
-3.087781	A#seventh Gmaj6
-2.485721	A#seventh Gmin
-2.242683	A#seventh Gmin7	-0.1922231
-2.184691	A#seventh Gseventh	-0.3367082
-1.809028	A#seventh N	-0.1504043
-0.06915694	A#sus4 A#maj	-0.2733541
-1.993436	A#sus4 A#min
-1.340224	A#sus4 A#seventh	-0.123072
-2.294466	A#sus4 Cmaj
-1.692406	A#sus4 D#maj	-0.1379292
-1.993436	A#sus4 Fmaj
-2.294466	A#sus4 Gmin
-1.993436	A#sus4 N
-1.374137	Aaug A#maj	-0.1563863
-1.550228	Aaug A#maj6	-0.6756219
-1.675167	Aaug A#min	-0.6005948
-1.249198	Aaug A#seventh	-0.9241272
-1.675167	Aaug Amaj	-0.2015171
-1.550228	Aaug Amin	-0.2794382
-2.152288	Aaug Bmin
-1.550228	Aaug Bseventh	-0.6910931
-1.374137	Aaug C#maj	-0.4056371
-1.374137	Aaug C#seventh	-0.5611637
-1.374137	Aaug Cmaj	-0.5948891
-1.851258	Aaug D#dim	-0.4534266
-1.851258	Aaug D#maj	-0.4366156
-1.675167	Aaug D#min	-0.218766
-1.550228	Aaug Dmaj	-0.1257964
-1.675167	Aaug Dmaj7	-0.2178826
-0.8970158	Aaug Dmin	-0.6203139
-1.073107	Aaug Dmin7	-0.5194033
-1.30719	Aaug F#maj	-0.5213738
-1.453318	Aaug F#min	-0.2017732
-1.851258	Aaug F#min7	-0.4730497
-2.152288	Aaug Fmaj
-1.374137	Aaug G#maj	-0.8380982
-1.851258	Aaug Gmaj	-0.4617009
-1.149988	Adim A#dim	-0.6001341
-0.8769872	Adim A#maj	-0.4775699
-0.8769872	Adim A#min	-0.5132651
-1.354108	Adim Amaj	-0.3269627
-2.053078	Adim Bmin
-2.053078	Adim Bmin7
-1.451018	Adim C#maj	-0.03194055
-2.053078	Adim Cmin
-1.575957	Adim D#dim	-0.5402076
-1.575957	Adim Dmaj	-0.5897245
-1.752048	Adim Dseventh	-0.4377817
-1.752048	Adim Emaj	-0.4728075
-1.752048	Adim F#maj
-2.053078	Adim F#seventh
-1.274927	Adim G#maj	-0.5835326
-1.752048	Adim G#min	-0.4493363
-0.9069504	Adim G#min7	-0.5549778
-1.274927	Adim Gmaj	-0.4093039
-1.575957	Adim N	-0.4231767
-2.536558	Amaj </s>
-2.837589	Amaj A#dim	-0.7954186
-2.132866	Amaj A#maj	-0.1465344
-4.01368	Amaj A#min
-3.71265	Amaj A#min7
-3.31471	Amaj A#seventh	-0.1441976
-3.536558	Amaj Aaug	-0.1629821
-3.01368	Amaj Adim	-0.2452287
-1.045197	Amaj Amaj	-0.0352205
-3.168582	Amaj Amaj6	-0.2283796
-1.980256	Amaj Amaj7	-0.5213432
-2.162421	Amaj Amin	-0.5579545
-4.01368	Amaj Amin7
-3.059437	Amaj Aninth	-0.251812
-1.806854	Amaj Aseventh	-0.3117301
-2.242828	Amaj Asus4	-0.1246631
-3.31471	Amaj Baug	-0.3555675
-3.41162	Amaj Bdim	-0.6670809
-1.050364	Amaj Bmaj	-0.4118493
-3.235528	Amaj Bmaj6	-0.1488784
-1.457377	Amaj Bmin	-0.2524326
-2.250252	Amaj Bmin7	-0.5133184
-3.235528	Amaj Bninth	-0.4128471
-2.200766	Amaj Bseventh	-0.300073
-2.934499	Amaj Bsus4	-0.2818751
-3.11059	Amaj C#aug	-0.5292543
-3.71265	Amaj C#dim	-0.4152689
-2.00508	Amaj C#maj	-0.7838675
-1.796196	Amaj C#min	-0.4450805
-2.598706	Amaj C#min7	-0.3486409
-2.783231	Amaj C#seventh	-0.936047
-3.168582	Amaj C#sus4	0.3549469
-3.536558	Amaj Caug	-0.5927865
-3.31471	Amaj Cdim	-0.3105335
-1.780684	Amaj Cmaj	-0.3707873
-2.899736	Amaj Cmaj6	-0.4834556
-3.168582	Amaj Cmin	-0.273245
-3.235528	Amaj Cseventh	-0.2193579
-3.71265	Amaj D#dim	-0.4693658
-2.633468	Amaj D#maj	-0.2435187
-3.41162	Amaj D#min	-0.690402
-3.41162	Amaj D#ninth	-0.2932046
-3.41162	Amaj D#seventh	-0.2985391
-3.31471	Amaj D#sus4	0.05391693
-3.41162	Amaj Daug	-0.6834022
-0.6360093	Amaj Dmaj	-0.1833864
-2.39043	Amaj Dmaj6	-0.4376982
-2.633468	Amaj Dmaj7	-0.4592097
-1.552782	Amaj Dmin	-0.4385751
-3.11059	Amaj Dmin7	-0.4999976
-3.168582	Amaj Dninth	-0.4322246
-2.054638	Amaj Dseventh	-0.4607308
-3.41162	Amaj Dsus4	0.5310382
-3.01368	Amaj Eaug	-0.466805
-0.7625284	Amaj Emaj	-0.3203102
-3.11059	Amaj Emaj6	-0.1787607
-3.536558	Amaj Emaj7	-0.5954294
-1.934498	Amaj Emin	-0.6026081
-2.80956	Amaj Emin7	-0.411149
-2.433896	Amaj Eninth	-0.3927389
-2.162421	Amaj Eseventh	-0.4641563
-4.01368	Amaj F#aug
-1.812283	Amaj F#maj	-0.3066447
-1.339738	Amaj F#min	-0.4447511
-2.132866	Amaj F#min7	-0.2882024
-3.235528	Amaj F#ninth	-0.3723859
-2.41162	Amaj F#seventh	-0.3149241
-4.01368	Amaj F#sus4
-3.01368	Amaj Faug	-0.7364526
-2.105195	Amaj Fmaj	-0.3188396
-3.71265	Amaj Fmin
-3.536558	Amaj Fninth	-0.5942347
-3.536558	Amaj Fseventh	-0.220783
-4.01368	Amaj G#aug
-3.41162	Amaj G#dim	-0.6752753
-2.00508	Amaj G#maj	-0.2948124
-2.306109	Amaj G#min	-0.3707472
-3.01368	Amaj G#min7	-0.1836056
-3.41162	Amaj G#ninth	-0.486498
-2.671257	Amaj G#seventh	-0.3594209
-4.01368	Amaj G#sus4
-3.536558	Amaj Gdim	-0.1644055
-1.302717	Amaj Gmaj	-0.416241
-3.71265	Amaj Gmaj6	-0.4422595
-3.31471	Amaj Gmaj7	-0.7715207
-2.734926	Amaj Gmin	-0.3130755
-3.536558	Amaj Gmin7	-0.2191386
-2.482201	Amaj Gseventh	-0.3143423
-3.235528	Amaj Gsus4	0.4060995
-1.728122	Amaj N	-0.4535125
-2.559907	Amaj6 </s>
-1.714809	Amaj6 A#maj6	-0.3845761
-1.258877	Amaj6 Amaj	-0.2833582
-1.304634	Amaj6 Amaj6	-0.5678459
-2.559907	Amaj6 Amaj7
-1.355787	Amaj6 Amin	-0.7250471
-2.082785	Amaj6 Aseventh	-0.06654111
-1.281153	Amaj6 Bmaj	-0.2611245
-1.714809	Amaj6 Bmaj6	-0.2925734
-1.860937	Amaj6 Bmin	-0.7360998
-1.559907	Amaj6 Bmin7	-0.440865
-2.258877	Amaj6 Bninth	-0.2646492
-1.714809	Amaj6 Bseventh	0.08275698
-2.559907	Amaj6 C#maj
-2.559907	Amaj6 D#min
-0.8040318	Amaj6 Dmaj	-0.396109
-1.518514	Amaj6 Dmaj6	-0.5105007
-1.258877	Amaj6 Dmaj7	-0.3164151
-1.860937	Amaj6 Dseventh	-0.6228436
-1.112749	Amaj6 Emaj	-0.4384902
-2.559907	Amaj6 Emaj6
-2.559907	Amaj6 Emin
-1.217484	Amaj6 Emin7	-0.587523
-1.480725	Amaj6 F#maj	-0.6279927
-1.383815	Amaj6 F#min	-0.366059
-1.329458	Amaj6 F#min7	-0.5142151
-2.258877	Amaj6 F#seventh
-2.559907	Amaj6 Fmaj
-2.559907	Amaj6 Fmin
-1.957847	Amaj6 G#maj6	-0.4662179
-1.860937	Amaj6 Gmaj	-0.1995511
-2.258877	Amaj6 Gmaj6	-0.4686646
-1.656817	Amaj6 N	-0.3411991
-2.217484	Amaj7 </s>
-1.819544	Amaj7 Amaj	-0.2588117
-0.9387304	Amaj7 Amaj6	-0.5326035
-1.314394	Amaj7 Amaj7	-0.4195052
-2.518514	Amaj7 Amin
-1.673416	Amaj7 Aseventh	-0.1616615
-1.819544	Amaj7 Bmaj	-0.7371372
-2.518514	Amaj7 Bmaj6
-2.041393	Amaj7 Bmin	-0.5946839
-1.564271	Amaj7 Bmin7	-0.9911296
-1.439333	Amaj7 Bseventh	-0.265044
-2.217484	Amaj7 C#maj	-0.4647858
-1.615424	Amaj7 C#min	-0.05891784
-2.041393	Amaj7 C#min7	-0.2122884
-2.041393	Amaj7 D#dim	-0.5903742
-1.819544	Amaj7 Dmaj	-0.08881282
-1.217484	Amaj7 Dmaj7	-0.5011957
-1	Amaj7 Emaj	-0.2584057
-2.518514	Amaj7 Emaj6
-1.518514	Amaj7 Emaj7	-0.7083436
-2.518514	Amaj7 Eninth
-1.819544	Amaj7 Eseventh	-0.5419339
-2.217484	Amaj7 F#maj	-0.4732747
-0.8464161	Amaj7 F#min	-0.5966878
-1.056116	Amaj7 F#min7	-0.3991091
-2.217484	Amaj7 F#seventh	-0.4454821
-2.518514	Amaj7 G#maj
-1.564271	Amaj7 G#min	-0.3202155
-1.673416	Amaj7 G#min7	-0.8780677
-1.740363	Amaj7 G#sus4	-0.01302981
-1.740363	Amaj7 N	-0.2470855
-2.995489	Amin </s>
-3.17158	Amin A#dim	-0.4693658
-1.77364	Amin A#maj	-0.3739272
-2.431217	Amin A#maj7	-0.490937
-2.995489	Amin A#min
-2.77364	Amin Adim	-0.3442821
-2.26849	Amin Amaj	-0.200772
-1.314248	Amin Amin	-0.2703753
-1.981248	Amin Amin7	-0.2783163
-2.87055	Amin Aseventh	-0.4692443
-1.701758	Amin Bmaj	-0.5172702
-1.77364	Amin Bmin	-0.5187931
-3.17158	Amin Bmin7	-0.4757683
-2.17158	Amin Bninth	-1.267172
-2.130188	Amin Bseventh	-0.6552054
-2.518368	Amin Bsus4	0.2530736
-2.87055	Amin C#maj	-0.6922268
-2.694459	Amin C#min	-0.422886
-3.47261	Amin C#seventh
-2.518368	Amin Caug	-0.5736232
-2.995489	Amin Cdim	-0.5903742
-1.06099	Amin Cmaj	-0.3231162
-1.538112	Amin Cmaj6	-0.7056187
-2.87055	Amin Cmaj7	-0.4254749
-2.17158	Amin Cmin	-1.010163
-2.17158	Amin Cseventh	-0.880468
-3.47261	Amin D#aug
-3.17158	Amin D#maj	-0.4749697
-0.9514721	Amin Dmaj	-0.7188796
-3.17158	Amin Dmaj6
-0.9322807	Amin Dmin	-0.5415743
-1.96746	Amin Dmin7	-0.3616217
-2.17158	Amin Dninth	-0.2769227
-1.709182	Amin Dseventh	-0.6087934
-2.057637	Amin Dsus4	0.2944663
-2.130188	Amin Eaug	-0.5501422
-1.207792	Amin Emaj	-0.3529913
-1.182576	Amin Emin	-0.3230419
-1.881546	Amin Eseventh	-0.9258142
-2.77364	Amin Esus4	0.05391693
-3.47261	Amin F#dim
-2.995489	Amin F#maj	-0.4878725
-3.17158	Amin F#min	-0.4698939
-3.17158	Amin F#min7
-3.47261	Amin F#ninth
-2.694459	Amin F#seventh	-0.4344019
-1.051006	Amin Fmaj	-0.5674877
-3.17158	Amin Fmaj6
-2.130188	Amin Fmaj7	-0.3588574
-2.150391	Amin Fmin	-0.5361238
-3.47261	Amin Fmin7
-2.77364	Amin Fninth	-0.5656792
-2.150391	Amin Fseventh	-0.7349095
-2.47261	Amin G#aug	-0.7398062
-2.431217	Amin G#dim	-0.6841142
-2.627512	Amin G#maj
-1.892827	Amin G#min	-0.8134915
-3.17158	Amin Gaug	-0.4583718
-1.03486	Amin Gmaj	-0.2450745
-3.47261	Amin Gmaj6
-3.17158	Amin Gmaj7	-0.455537
-1.782414	Amin Gmin	-0.4074863
-2.518368	Amin Gmin7	-0.6940795
-2.431217	Amin Gseventh	-0.4815145
-1.96746	Amin N	-0.3775735
-2.206151	Amin7 A#dim	-0.08427567
-1.808211	Amin7 A#maj	-0.2876604
-2.507181	Amin7 A#maj7	-0.4313638
-2.808211	Amin7 A#min7
-2.808211	Amin7 A#seventh
-2.109241	Amin7 Amaj	-0.5025912
-2.206151	Amin7 Amaj6	-0.6768825
-1.63212	Amin7 Amin	-0.2689091
-1.002031	Amin7 Amin7	-0.4854829
-2.03006	Amin7 Bmaj	-0.35193
-2.03006	Amin7 Bmin	-0.8378707
-1.694268	Amin7 Bmin7	-0.3516998
-2.33109	Amin7 Bseventh	-0.2150544
-2.03006	Amin7 Caug	-0.3366148
-1.264143	Amin7 Cmaj	-0.2912982
-2.03006	Amin7 Cmaj7	-0.4193382
-2.507181	Amin7 Cmin	-0.4493363
-2.206151	Amin7 Cseventh	-0.5436624
-2.33109	Amin7 D#dim	-0.2061968
-1.604091	Amin7 D#maj	-0.7376456
-2.808211	Amin7 D#seventh
-1.00887	Amin7 Dmaj	-0.3588845
-1.289697	Amin7 Dmaj6	-0.8117523
-1.662083	Amin7 Dmin	-0.8419311
-1.662083	Amin7 Dmin7	-0.2569952
-2.507181	Amin7 Dninth	-0.2646492
-1.083935	Amin7 Dseventh	-0.2183003
-1.361053	Amin7 Dsus4	-0.6303298
-1.72903	Amin7 Emaj	-0.5643288
-1.529457	Amin7 Emin	-0.2805967
-2.03006	Amin7 Emin7	-0.1672208
-1.963113	Amin7 Eseventh	-0.4377817
-2.808211	Amin7 F#maj6
-1.853969	Amin7 Fmaj	-0.3278933
-2.109241	Amin7 Fmaj7	-0.09305766
-2.507181	Amin7 Fmin
-2.507181	Amin7 Fseventh
-2.507181	Amin7 G#aug	-0.4583718
-2.03006	Amin7 G#maj	-0.3069391
-1.240009	Amin7 Gmaj	-0.2229164
-1.63212	Amin7 Gmaj6	-0.3831637
-1.694268	Amin7 Gmaj7	-0.275451
-2.507181	Amin7 Gmin
-1.251908	Amin7 Gmin7	-0.3861448
-2.808211	Amin7 Gninth
-2.808211	Amin7 Gseventh
-2.808211	Amin7 Gsus4
-2.206151	Amin7 N
-1.748188	Aninth </s>
-1.623249	Aninth Amaj	-0.2942013
-1.748188	Aninth Amin7	-0.5938784
-1.924279	Aninth Aninth	-0.2646492
-1.924279	Aninth Aseventh	-0.3218136
-1.924279	Aninth Bmin	-0.4493363
-1.924279	Aninth Bseventh
-1.526339	Aninth Cmaj7	-0.7323938
-0.9242793	Aninth D#seventh	-0.858507
-0.4123959	Aninth Dmaj	-0.2245421
-1.623249	Aninth Dmin	-0.1455425
-2.225309	Aninth Dseventh
-1.447158	Aninth Emaj	-0.1312057
-1.526339	Aninth Emin	-0.2011846
-2.225309	Aninth Emin7
-1.924279	Aninth F#maj	-0.4732747
-1.271067	Aninth Gmaj	-0.1864709
-1.748188	Aninth Gmin	-0.5991246
-1.526339	Aninth Gninth	-0.762357
-1.623249	Aninth N	-0.1221467
-3.087781	Aseventh </s>
-2.485721	Aseventh A#dim	-0.1224334
-2.242683	Aseventh A#maj	-0.1399269
-3.087781	Aseventh A#maj6
-3.087781	Aseventh A#seventh
-1.569268	Aseventh Amaj	-0.367335
-2.388811	Aseventh Amaj6	-0.2937916
-2.61066	Aseventh Amin7	-0.2136671
-2.61066	Aseventh Aninth
-1.30963	Aseventh Aseventh	-0.3360728
-3.087781	Aseventh Asus4
-1.745359	Aseventh Bmaj	-0.5260461
-2.046389	Aseventh Bmin	-0.3431335
-2.786752	Aseventh Bmin7
-3.087781	Aseventh Bninth
-2.133539	Aseventh Bseventh	-0.2631308
-2.388811	Aseventh Bsus4	0.05391693
-2.388811	Aseventh C#maj	-0.490002
-1.765562	Aseventh C#min	-0.4677639
-2.485721	Aseventh C#min7	-0.1434179
-2.786752	Aseventh C#seventh	-0.4377817
-1.745359	Aseventh Cmaj	-0.2588285
-2.485721	Aseventh Cmin	-0.2997115
-1.883661	Aseventh Cseventh	-0.5516652
-3.087781	Aseventh Csus4
-3.087781	Aseventh D#maj
-2.786752	Aseventh D#min7	-0.4744112
-0.5219336	Aseventh Dmaj	0.0892747
-2.61066	Aseventh Dmaj7	-0.5749078
-1.062476	Aseventh Dmin	-0.2500459
-1.973838	Aseventh Dmin7	-0.315454
-2.30963	Aseventh Dninth	-0.1311946
-1.153283	Aseventh Dseventh	-0.3121472
-2.046389	Aseventh Dsus4	-0.247113
-1.173968	Aseventh Emaj	-0.04624331
-1.809028	Aseventh Emin	-0.4418085
-1.973838	Aseventh Emin7	-0.3650725
-1.242683	Aseventh Eseventh	-0.4083283
-3.087781	Aseventh F#maj6
-2.485721	Aseventh F#min
-2.242683	Aseventh F#min7	-0.1922231
-2.184691	Aseventh F#seventh	-0.3367082
-2.184691	Aseventh Fmaj	-0.3338454
-1.809028	Aseventh G#aug	-0.9480822
-2.61066	Aseventh G#maj	-0.2214277
-3.087781	Aseventh G#maj7
-2.61066	Aseventh G#min	-0.2180288
-1.973838	Aseventh G#seventh	-0.3155536
-3.087781	Aseventh G#sus4
-1.70757	Aseventh Gmaj	0.05462998
-3.087781	Aseventh Gmaj6
-2.046389	Aseventh Gmaj7	-0.3149064
-2.786752	Aseventh Gninth	-0.4719201
-1.786751	Aseventh Gseventh	-0.7115591
-1.809028	Aseventh N	-0.1504043
-0.06915694	Asus4 Amaj	-0.2733541
-1.993436	Asus4 Amin
-1.340224	Asus4 Aseventh	-0.123072
-2.294466	Asus4 Bmaj
-1.692406	Asus4 Dmaj	-0.1379292
-1.993436	Asus4 Emaj
-2.294466	Asus4 F#min
-1.993436	Asus4 N
-1.374137	Baug A#maj	-0.8380982
-1.851258	Baug Amaj	-0.4617009
-1.675167	Baug Bmaj	-0.2015171
-1.550228	Baug Bmin	-0.2794382
-2.152288	Baug C#min
-1.550228	Baug C#seventh	-0.6910931
-1.374137	Baug Cmaj	-0.1563863
-1.550228	Baug Cmaj6	-0.6756219
-1.675167	Baug Cmin	-0.6005948
-1.249198	Baug Cseventh	-0.9241272
-1.374137	Baug D#maj	-0.4056371
-1.374137	Baug D#seventh	-0.5611637
-1.374137	Baug Dmaj	-0.5948891
-1.550228	Baug Emaj	-0.1257964
-1.675167	Baug Emaj7	-0.2178826
-0.8970158	Baug Emin	-0.6203139
-1.073107	Baug Emin7	-0.5194033
-1.851258	Baug Fdim	-0.4534266
-1.851258	Baug Fmaj	-0.4366156
-1.675167	Baug Fmin	-0.218766
-1.30719	Baug G#maj	-0.5213738
-1.453318	Baug G#min	-0.2017732
-1.851258	Baug G#min7	-0.4730497
-2.152288	Baug Gmaj
-1.274927	Bdim A#maj	-0.5835326
-1.752048	Bdim A#min	-0.4493363
-0.9069504	Bdim A#min7	-0.5549778
-1.274927	Bdim Amaj	-0.4093039
-1.354108	Bdim Bmaj	-0.3269627
-2.053078	Bdim C#min
-2.053078	Bdim C#min7
-1.149988	Bdim Cdim	-0.6001341
-0.8769872	Bdim Cmaj	-0.4775699
-0.8769872	Bdim Cmin	-0.5132651
-1.451018	Bdim D#maj	-0.03194055
-2.053078	Bdim Dmin
-1.575957	Bdim Emaj	-0.5897245
-1.752048	Bdim Eseventh	-0.4377817
-1.752048	Bdim F#maj	-0.4728075
-1.575957	Bdim Fdim	-0.5402076
-1.752048	Bdim G#maj
-2.053078	Bdim G#seventh
-1.575957	Bdim N	-0.4231767
-2.536558	Bmaj </s>
-4.01368	Bmaj A#aug
-3.41162	Bmaj A#dim	-0.6752753
-2.00508	Bmaj A#maj	-0.2948124
-2.306109	Bmaj A#min	-0.3707472
-3.01368	Bmaj A#min7	-0.1836056
-3.41162	Bmaj A#ninth	-0.486498
-2.671257	Bmaj A#seventh	-0.3594209
-4.01368	Bmaj A#sus4
-3.536558	Bmaj Adim	-0.1644055
-1.302717	Bmaj Amaj	-0.416241
-3.71265	Bmaj Amaj6	-0.4422595
-3.31471	Bmaj Amaj7	-0.7715207
-2.734926	Bmaj Amin	-0.3130755
-3.536558	Bmaj Amin7	-0.2191386
-2.482201	Bmaj Aseventh	-0.3143423
-3.235528	Bmaj Asus4	0.4060995
-3.536558	Bmaj Baug	-0.1629821
-3.01368	Bmaj Bdim	-0.2452287
-1.045197	Bmaj Bmaj	-0.0352205
-3.168582	Bmaj Bmaj6	-0.2283796
-1.980256	Bmaj Bmaj7	-0.5213432
-2.162421	Bmaj Bmin	-0.5579545
-4.01368	Bmaj Bmin7
-3.059437	Bmaj Bninth	-0.251812
-1.806854	Bmaj Bseventh	-0.3117301
-2.242828	Bmaj Bsus4	-0.1246631
-3.31471	Bmaj C#aug	-0.3555675
-3.41162	Bmaj C#dim	-0.6670809
-1.050364	Bmaj C#maj	-0.4118493
-3.235528	Bmaj C#maj6	-0.1488784
-1.457377	Bmaj C#min	-0.2524326
-2.250252	Bmaj C#min7	-0.5133184
-3.235528	Bmaj C#ninth	-0.4128471
-2.200766	Bmaj C#seventh	-0.300073
-2.934499	Bmaj C#sus4	-0.2818751
-2.837589	Bmaj Cdim	-0.7954186
-2.132866	Bmaj Cmaj	-0.1465344
-4.01368	Bmaj Cmin
-3.71265	Bmaj Cmin7
-3.31471	Bmaj Cseventh	-0.1441976
-3.11059	Bmaj D#aug	-0.5292543
-3.71265	Bmaj D#dim	-0.4152689
-2.00508	Bmaj D#maj	-0.7838675
-1.796196	Bmaj D#min	-0.4450805
-2.598706	Bmaj D#min7	-0.3486409
-2.783231	Bmaj D#seventh	-0.936047
-3.168582	Bmaj D#sus4	0.3549469
-3.536558	Bmaj Daug	-0.5927865
-3.31471	Bmaj Ddim	-0.3105335
-1.780684	Bmaj Dmaj	-0.3707873
-2.899736	Bmaj Dmaj6	-0.4834556
-3.168582	Bmaj Dmin	-0.273245
-3.235528	Bmaj Dseventh	-0.2193579
-3.41162	Bmaj Eaug	-0.6834022
-0.6360093	Bmaj Emaj	-0.1833864
-2.39043	Bmaj Emaj6	-0.4376982
-2.633468	Bmaj Emaj7	-0.4592097
-1.552782	Bmaj Emin	-0.4385751
-3.11059	Bmaj Emin7	-0.4999976
-3.168582	Bmaj Eninth	-0.4322246
-2.054638	Bmaj Eseventh	-0.4607308
-3.41162	Bmaj Esus4	0.5310382
-3.01368	Bmaj F#aug	-0.466805
-0.7625284	Bmaj F#maj	-0.3203102
-3.11059	Bmaj F#maj6	-0.1787607
-3.536558	Bmaj F#maj7	-0.5954294
-1.934498	Bmaj F#min	-0.6026081
-2.80956	Bmaj F#min7	-0.411149
-2.433896	Bmaj F#ninth	-0.3927389
-2.162421	Bmaj F#seventh	-0.4641563
-3.71265	Bmaj Fdim	-0.4693658
-2.633468	Bmaj Fmaj	-0.2435187
-3.41162	Bmaj Fmin	-0.690402
-3.41162	Bmaj Fninth	-0.2932046
-3.41162	Bmaj Fseventh	-0.2985391
-3.31471	Bmaj Fsus4	0.05391693
-4.01368	Bmaj G#aug
-1.812283	Bmaj G#maj	-0.3066447
-1.339738	Bmaj G#min	-0.4447511
-2.132866	Bmaj G#min7	-0.2882024
-3.235528	Bmaj G#ninth	-0.3723859
-2.41162	Bmaj G#seventh	-0.3149241
-4.01368	Bmaj G#sus4
-3.01368	Bmaj Gaug	-0.7364526
-2.105195	Bmaj Gmaj	-0.3188396
-3.71265	Bmaj Gmin
-3.536558	Bmaj Gninth	-0.5942347
-3.536558	Bmaj Gseventh	-0.220783
-1.728122	Bmaj N	-0.4535125
-2.559907	Bmaj6 </s>
-1.957847	Bmaj6 A#maj6	-0.4662179
-1.860937	Bmaj6 Amaj	-0.1995511
-2.258877	Bmaj6 Amaj6	-0.4686646
-1.258877	Bmaj6 Bmaj	-0.2833582
-1.304634	Bmaj6 Bmaj6	-0.5678459
-2.559907	Bmaj6 Bmaj7
-1.355787	Bmaj6 Bmin	-0.7250471
-2.082785	Bmaj6 Bseventh	-0.06654111
-1.281153	Bmaj6 C#maj	-0.2611245
-1.714809	Bmaj6 C#maj6	-0.2925734
-1.860937	Bmaj6 C#min	-0.7360998
-1.559907	Bmaj6 C#min7	-0.440865
-2.258877	Bmaj6 C#ninth	-0.2646492
-1.714809	Bmaj6 C#seventh	0.08275698
-1.714809	Bmaj6 Cmaj6	-0.3845761
-2.559907	Bmaj6 D#maj
-0.8040318	Bmaj6 Emaj	-0.396109
-1.518514	Bmaj6 Emaj6	-0.5105007
-1.258877	Bmaj6 Emaj7	-0.3164151
-1.860937	Bmaj6 Eseventh	-0.6228436
-1.112749	Bmaj6 F#maj	-0.4384902
-2.559907	Bmaj6 F#maj6
-2.559907	Bmaj6 F#min
-1.217484	Bmaj6 F#min7	-0.587523
-2.559907	Bmaj6 Fmin
-1.480725	Bmaj6 G#maj	-0.6279927
-1.383815	Bmaj6 G#min	-0.366059
-1.329458	Bmaj6 G#min7	-0.5142151
-2.258877	Bmaj6 G#seventh
-2.559907	Bmaj6 Gmaj
-2.559907	Bmaj6 Gmin
-1.656817	Bmaj6 N	-0.3411991
-2.217484	Bmaj7 </s>
-2.518514	Bmaj7 A#maj
-1.564271	Bmaj7 A#min	-0.3202155
-1.673416	Bmaj7 A#min7	-0.8780677
-1.740363	Bmaj7 A#sus4	-0.01302981
-1.819544	Bmaj7 Bmaj	-0.2588117
-0.9387304	Bmaj7 Bmaj6	-0.5326035
-1.314394	Bmaj7 Bmaj7	-0.4195052
-2.518514	Bmaj7 Bmin
-1.673416	Bmaj7 Bseventh	-0.1616615
-1.819544	Bmaj7 C#maj	-0.7371372
-2.518514	Bmaj7 C#maj6
-2.041393	Bmaj7 C#min	-0.5946839
-1.564271	Bmaj7 C#min7	-0.9911296
-1.439333	Bmaj7 C#seventh	-0.265044
-2.217484	Bmaj7 D#maj	-0.4647858
-1.615424	Bmaj7 D#min	-0.05891784
-2.041393	Bmaj7 D#min7	-0.2122884
-1.819544	Bmaj7 Emaj	-0.08881282
-1.217484	Bmaj7 Emaj7	-0.5011957
-1	Bmaj7 F#maj	-0.2584057
-2.518514	Bmaj7 F#maj6
-1.518514	Bmaj7 F#maj7	-0.7083436
-2.518514	Bmaj7 F#ninth
-1.819544	Bmaj7 F#seventh	-0.5419339
-2.041393	Bmaj7 Fdim	-0.5903742
-2.217484	Bmaj7 G#maj	-0.4732747
-0.8464161	Bmaj7 G#min	-0.5966878
-1.056116	Bmaj7 G#min7	-0.3991091
-2.217484	Bmaj7 G#seventh	-0.4454821
-1.740363	Bmaj7 N	-0.2470855
-2.995489	Bmin </s>
-2.47261	Bmin A#aug	-0.7398062
-2.431217	Bmin A#dim	-0.6841142
-2.627512	Bmin A#maj
-1.892827	Bmin A#min	-0.8134915
-3.17158	Bmin Aaug	-0.4583718
-1.03486	Bmin Amaj	-0.2450745
-3.47261	Bmin Amaj6
-3.17158	Bmin Amaj7	-0.455537
-1.782414	Bmin Amin	-0.4074863
-2.518368	Bmin Amin7	-0.6940795
-2.431217	Bmin Aseventh	-0.4815145
-2.77364	Bmin Bdim	-0.3442821
-2.26849	Bmin Bmaj	-0.200772
-1.314248	Bmin Bmin	-0.2703753
-1.981248	Bmin Bmin7	-0.2783163
-2.87055	Bmin Bseventh	-0.4692443
-1.701758	Bmin C#maj	-0.5172702
-1.77364	Bmin C#min	-0.5187931
-3.17158	Bmin C#min7	-0.4757683
-2.17158	Bmin C#ninth	-1.267172
-2.130188	Bmin C#seventh	-0.6552054
-2.518368	Bmin C#sus4	0.2530736
-3.17158	Bmin Cdim	-0.4693658
-1.77364	Bmin Cmaj	-0.3739272
-2.431217	Bmin Cmaj7	-0.490937
-2.995489	Bmin Cmin
-2.87055	Bmin D#maj	-0.6922268
-2.694459	Bmin D#min	-0.422886
-3.47261	Bmin D#seventh
-2.518368	Bmin Daug	-0.5736232
-2.995489	Bmin Ddim	-0.5903742
-1.06099	Bmin Dmaj	-0.3231162
-1.538112	Bmin Dmaj6	-0.7056187
-2.87055	Bmin Dmaj7	-0.4254749
-2.17158	Bmin Dmin	-1.010163
-2.17158	Bmin Dseventh	-0.880468
-0.9514721	Bmin Emaj	-0.7188796
-3.17158	Bmin Emaj6
-0.9322807	Bmin Emin	-0.5415743
-1.96746	Bmin Emin7	-0.3616217
-2.17158	Bmin Eninth	-0.2769227
-1.709182	Bmin Eseventh	-0.6087934
-2.057637	Bmin Esus4	0.2944663
-2.130188	Bmin F#aug	-0.5501422
-1.207792	Bmin F#maj	-0.3529913
-1.182576	Bmin F#min	-0.3230419
-1.881546	Bmin F#seventh	-0.9258142
-2.77364	Bmin F#sus4	0.05391693
-3.47261	Bmin Faug
-3.17158	Bmin Fmaj	-0.4749697
-3.47261	Bmin G#dim
-2.995489	Bmin G#maj	-0.4878725
-3.17158	Bmin G#min	-0.4698939
-3.17158	Bmin G#min7
-3.47261	Bmin G#ninth
-2.694459	Bmin G#seventh	-0.4344019
-1.051006	Bmin Gmaj	-0.5674877
-3.17158	Bmin Gmaj6
-2.130188	Bmin Gmaj7	-0.3588574
-2.150391	Bmin Gmin	-0.5361238
-3.47261	Bmin Gmin7
-2.77364	Bmin Gninth	-0.5656792
-2.150391	Bmin Gseventh	-0.7349095
-1.96746	Bmin N	-0.3775735
-2.507181	Bmin7 A#aug	-0.4583718
-2.03006	Bmin7 A#maj	-0.3069391
-1.240009	Bmin7 Amaj	-0.2229164
-1.63212	Bmin7 Amaj6	-0.3831637
-1.694268	Bmin7 Amaj7	-0.275451
-2.507181	Bmin7 Amin
-1.251908	Bmin7 Amin7	-0.3861448
-2.808211	Bmin7 Aninth
-2.808211	Bmin7 Aseventh
-2.808211	Bmin7 Asus4
-2.109241	Bmin7 Bmaj	-0.5025912
-2.206151	Bmin7 Bmaj6	-0.6768825
-1.63212	Bmin7 Bmin	-0.2689091
-1.002031	Bmin7 Bmin7	-0.4854829
-2.03006	Bmin7 C#maj	-0.35193
-2.03006	Bmin7 C#min	-0.8378707
-1.694268	Bmin7 C#min7	-0.3516998
-2.33109	Bmin7 C#seventh	-0.2150544
-2.206151	Bmin7 Cdim	-0.08427567
-1.808211	Bmin7 Cmaj	-0.2876604
-2.507181	Bmin7 Cmaj7	-0.4313638
-2.808211	Bmin7 Cmin7
-2.808211	Bmin7 Cseventh
-2.03006	Bmin7 Daug	-0.3366148
-1.264143	Bmin7 Dmaj	-0.2912982
-2.03006	Bmin7 Dmaj7	-0.4193382
-2.507181	Bmin7 Dmin	-0.4493363
-2.206151	Bmin7 Dseventh	-0.5436624
-1.00887	Bmin7 Emaj	-0.3588845
-1.289697	Bmin7 Emaj6	-0.8117523
-1.662083	Bmin7 Emin	-0.8419311
-1.662083	Bmin7 Emin7	-0.2569952
-2.507181	Bmin7 Eninth	-0.2646492
-1.083935	Bmin7 Eseventh	-0.2183003
-1.361053	Bmin7 Esus4	-0.6303298
-1.72903	Bmin7 F#maj	-0.5643288
-1.529457	Bmin7 F#min	-0.2805967
-2.03006	Bmin7 F#min7	-0.1672208
-1.963113	Bmin7 F#seventh	-0.4377817
-2.33109	Bmin7 Fdim	-0.2061968
-1.604091	Bmin7 Fmaj	-0.7376456
-2.808211	Bmin7 Fseventh
-2.808211	Bmin7 G#maj6
-1.853969	Bmin7 Gmaj	-0.3278933
-2.109241	Bmin7 Gmaj7	-0.09305766
-2.507181	Bmin7 Gmin
-2.507181	Bmin7 Gseventh
-2.206151	Bmin7 N
-1.748188	Bninth </s>
-1.271067	Bninth Amaj	-0.1864709
-1.748188	Bninth Amin	-0.5991246
-1.526339	Bninth Aninth	-0.762357
-1.623249	Bninth Bmaj	-0.2942013
-1.748188	Bninth Bmin7	-0.5938784
-1.924279	Bninth Bninth	-0.2646492
-1.924279	Bninth Bseventh	-0.3218136
-1.924279	Bninth C#min	-0.4493363
-1.924279	Bninth C#seventh
-1.526339	Bninth Dmaj7	-0.7323938
-0.4123959	Bninth Emaj	-0.2245421
-1.623249	Bninth Emin	-0.1455425
-2.225309	Bninth Eseventh
-1.447158	Bninth F#maj	-0.1312057
-1.526339	Bninth F#min	-0.2011846
-2.225309	Bninth F#min7
-0.9242793	Bninth Fseventh	-0.858507
-1.924279	Bninth G#maj	-0.4732747
-1.623249	Bninth N	-0.1221467
-3.087781	Bseventh </s>
-1.809028	Bseventh A#aug	-0.9480822
-2.61066	Bseventh A#maj	-0.2214277
-3.087781	Bseventh A#maj7
-2.61066	Bseventh A#min	-0.2180288
-1.973838	Bseventh A#seventh	-0.3155536
-3.087781	Bseventh A#sus4
-1.70757	Bseventh Amaj	0.05462998
-3.087781	Bseventh Amaj6
-2.046389	Bseventh Amaj7	-0.3149064
-2.786752	Bseventh Aninth	-0.4719201
-1.786751	Bseventh Aseventh	-0.7115591
-1.569268	Bseventh Bmaj	-0.367335
-2.388811	Bseventh Bmaj6	-0.2937916
-2.61066	Bseventh Bmin7	-0.2136671
-2.61066	Bseventh Bninth
-1.30963	Bseventh Bseventh	-0.3360728
-3.087781	Bseventh Bsus4
-1.745359	Bseventh C#maj	-0.5260461
-2.046389	Bseventh C#min	-0.3431335
-2.786752	Bseventh C#min7
-3.087781	Bseventh C#ninth
-2.133539	Bseventh C#seventh	-0.2631308
-2.388811	Bseventh C#sus4	0.05391693
-2.485721	Bseventh Cdim	-0.1224334
-2.242683	Bseventh Cmaj	-0.1399269
-3.087781	Bseventh Cmaj6
-3.087781	Bseventh Cseventh
-2.388811	Bseventh D#maj	-0.490002
-1.765562	Bseventh D#min	-0.4677639
-2.485721	Bseventh D#min7	-0.1434179
-2.786752	Bseventh D#seventh	-0.4377817
-1.745359	Bseventh Dmaj	-0.2588285
-2.485721	Bseventh Dmin	-0.2997115
-1.883661	Bseventh Dseventh	-0.5516652
-3.087781	Bseventh Dsus4
-0.5219336	Bseventh Emaj	0.0892747
-2.61066	Bseventh Emaj7	-0.5749078
-1.062476	Bseventh Emin	-0.2500459
-1.973838	Bseventh Emin7	-0.315454
-2.30963	Bseventh Eninth	-0.1311946
-1.153283	Bseventh Eseventh	-0.3121472
-2.046389	Bseventh Esus4	-0.247113
-1.173968	Bseventh F#maj	-0.04624331
-1.809028	Bseventh F#min	-0.4418085
-1.973838	Bseventh F#min7	-0.3650725
-1.242683	Bseventh F#seventh	-0.4083283
-3.087781	Bseventh Fmaj
-2.786752	Bseventh Fmin7	-0.4744112
-3.087781	Bseventh G#maj6
-2.485721	Bseventh G#min
-2.242683	Bseventh G#min7	-0.1922231
-2.184691	Bseventh G#seventh	-0.3367082
-2.184691	Bseventh Gmaj	-0.3338454
-1.809028	Bseventh N	-0.1504043
-0.06915694	Bsus4 Bmaj	-0.2733541
-1.993436	Bsus4 Bmin
-1.340224	Bsus4 Bseventh	-0.123072
-2.294466	Bsus4 C#maj
-1.692406	Bsus4 Emaj	-0.1379292
-1.993436	Bsus4 F#maj
-2.294466	Bsus4 G#min
-1.993436	Bsus4 N
-1.30719	C#aug A#maj	-0.5213738
-1.453318	C#aug A#min	-0.2017732
-1.851258	C#aug A#min7	-0.4730497
-2.152288	C#aug Amaj
-1.851258	C#aug Bmaj	-0.4617009
-1.675167	C#aug C#maj	-0.2015171
-1.550228	C#aug C#min	-0.2794382
-1.374137	C#aug Cmaj	-0.8380982
-2.152288	C#aug D#min
-1.550228	C#aug D#seventh	-0.6910931
-1.374137	C#aug Dmaj	-0.1563863
-1.550228	C#aug Dmaj6	-0.6756219
-1.675167	C#aug Dmin	-0.6005948
-1.249198	C#aug Dseventh	-0.9241272
-1.374137	C#aug Emaj	-0.5948891
-1.550228	C#aug F#maj	-0.1257964
-1.675167	C#aug F#maj7	-0.2178826
-0.8970158	C#aug F#min	-0.6203139
-1.073107	C#aug F#min7	-0.5194033
-1.374137	C#aug Fmaj	-0.4056371
-1.374137	C#aug Fseventh	-0.5611637
-1.851258	C#aug Gdim	-0.4534266
-1.851258	C#aug Gmaj	-0.4366156
-1.675167	C#aug Gmin	-0.218766
-1.752048	C#dim A#maj
-2.053078	C#dim A#seventh
-1.274927	C#dim Bmaj	-0.4093039
-1.354108	C#dim C#maj	-0.3269627
-1.274927	C#dim Cmaj	-0.5835326
-1.752048	C#dim Cmin	-0.4493363
-0.9069504	C#dim Cmin7	-0.5549778
-2.053078	C#dim D#min
-2.053078	C#dim D#min7
-1.149988	C#dim Ddim	-0.6001341
-0.8769872	C#dim Dmaj	-0.4775699
-0.8769872	C#dim Dmin	-0.5132651
-2.053078	C#dim Emin
-1.575957	C#dim F#maj	-0.5897245
-1.752048	C#dim F#seventh	-0.4377817
-1.451018	C#dim Fmaj	-0.03194055
-1.752048	C#dim G#maj	-0.4728075
-1.575957	C#dim Gdim	-0.5402076
-1.575957	C#dim N	-0.4231767
-2.536558	C#maj </s>
-4.01368	C#maj A#aug
-1.812283	C#maj A#maj	-0.3066447
-1.339738	C#maj A#min	-0.4447511
-2.132866	C#maj A#min7	-0.2882024
-3.235528	C#maj A#ninth	-0.3723859
-2.41162	C#maj A#seventh	-0.3149241
-4.01368	C#maj A#sus4
-3.01368	C#maj Aaug	-0.7364526
-2.105195	C#maj Amaj	-0.3188396
-3.71265	C#maj Amin
-3.536558	C#maj Aninth	-0.5942347
-3.536558	C#maj Aseventh	-0.220783
-3.536558	C#maj Bdim	-0.1644055
-1.302717	C#maj Bmaj	-0.416241
-3.71265	C#maj Bmaj6	-0.4422595
-3.31471	C#maj Bmaj7	-0.7715207
-2.734926	C#maj Bmin	-0.3130755
-3.536558	C#maj Bmin7	-0.2191386
-2.482201	C#maj Bseventh	-0.3143423
-3.235528	C#maj Bsus4	0.4060995
-3.536558	C#maj C#aug	-0.1629821
-3.01368	C#maj C#dim	-0.2452287
-1.045197	C#maj C#maj	-0.0352205
-3.168582	C#maj C#maj6	-0.2283796
-1.980256	C#maj C#maj7	-0.5213432
-2.162421	C#maj C#min	-0.5579545
-4.01368	C#maj C#min7
-3.059437	C#maj C#ninth	-0.251812
-1.806854	C#maj C#seventh	-0.3117301
-2.242828	C#maj C#sus4	-0.1246631
-4.01368	C#maj Caug
-3.41162	C#maj Cdim	-0.6752753
-2.00508	C#maj Cmaj	-0.2948124
-2.306109	C#maj Cmin	-0.3707472
-3.01368	C#maj Cmin7	-0.1836056
-3.41162	C#maj Cninth	-0.486498
-2.671257	C#maj Cseventh	-0.3594209
-4.01368	C#maj Csus4
-3.31471	C#maj D#aug	-0.3555675
-3.41162	C#maj D#dim	-0.6670809
-1.050364	C#maj D#maj	-0.4118493
-3.235528	C#maj D#maj6	-0.1488784
-1.457377	C#maj D#min	-0.2524326
-2.250252	C#maj D#min7	-0.5133184
-3.235528	C#maj D#ninth	-0.4128471
-2.200766	C#maj D#seventh	-0.300073
-2.934499	C#maj D#sus4	-0.2818751
-2.837589	C#maj Ddim	-0.7954186
-2.132866	C#maj Dmaj	-0.1465344
-4.01368	C#maj Dmin
-3.71265	C#maj Dmin7
-3.31471	C#maj Dseventh	-0.1441976
-3.536558	C#maj Eaug	-0.5927865
-3.31471	C#maj Edim	-0.3105335
-1.780684	C#maj Emaj	-0.3707873
-2.899736	C#maj Emaj6	-0.4834556
-3.168582	C#maj Emin	-0.273245
-3.235528	C#maj Eseventh	-0.2193579
-3.41162	C#maj F#aug	-0.6834022
-0.6360093	C#maj F#maj	-0.1833864
-2.39043	C#maj F#maj6	-0.4376982
-2.633468	C#maj F#maj7	-0.4592097
-1.552782	C#maj F#min	-0.4385751
-3.11059	C#maj F#min7	-0.4999976
-3.168582	C#maj F#ninth	-0.4322246
-2.054638	C#maj F#seventh	-0.4607308
-3.41162	C#maj F#sus4	0.5310382
-3.11059	C#maj Faug	-0.5292543
-3.71265	C#maj Fdim	-0.4152689
-2.00508	C#maj Fmaj	-0.7838675
-1.796196	C#maj Fmin	-0.4450805
-2.598706	C#maj Fmin7	-0.3486409
-2.783231	C#maj Fseventh	-0.936047
-3.168582	C#maj Fsus4	0.3549469
-3.01368	C#maj G#aug	-0.466805
-0.7625284	C#maj G#maj	-0.3203102
-3.11059	C#maj G#maj6	-0.1787607
-3.536558	C#maj G#maj7	-0.5954294
-1.934498	C#maj G#min	-0.6026081
-2.80956	C#maj G#min7	-0.411149
-2.433896	C#maj G#ninth	-0.3927389
-2.162421	C#maj G#seventh	-0.4641563
-3.71265	C#maj Gdim	-0.4693658
-2.633468	C#maj Gmaj	-0.2435187
-3.41162	C#maj Gmin	-0.690402
-3.41162	C#maj Gninth	-0.2932046
-3.41162	C#maj Gseventh	-0.2985391
-3.31471	C#maj Gsus4	0.05391693
-1.728122	C#maj N	-0.4535125
-2.559907	C#maj6 </s>
-1.480725	C#maj6 A#maj	-0.6279927
-1.383815	C#maj6 A#min	-0.366059
-1.329458	C#maj6 A#min7	-0.5142151
-2.258877	C#maj6 A#seventh
-2.559907	C#maj6 Amaj
-2.559907	C#maj6 Amin
-1.860937	C#maj6 Bmaj	-0.1995511
-2.258877	C#maj6 Bmaj6	-0.4686646
-1.258877	C#maj6 C#maj	-0.2833582
-1.304634	C#maj6 C#maj6	-0.5678459
-2.559907	C#maj6 C#maj7
-1.355787	C#maj6 C#min	-0.7250471
-2.082785	C#maj6 C#seventh	-0.06654111
-1.957847	C#maj6 Cmaj6	-0.4662179
-1.281153	C#maj6 D#maj	-0.2611245
-1.714809	C#maj6 D#maj6	-0.2925734
-1.860937	C#maj6 D#min	-0.7360998
-1.559907	C#maj6 D#min7	-0.440865
-2.258877	C#maj6 D#ninth	-0.2646492
-1.714809	C#maj6 D#seventh	0.08275698
-1.714809	C#maj6 Dmaj6	-0.3845761
-0.8040318	C#maj6 F#maj	-0.396109
-1.518514	C#maj6 F#maj6	-0.5105007
-1.258877	C#maj6 F#maj7	-0.3164151
-1.860937	C#maj6 F#seventh	-0.6228436
-2.559907	C#maj6 Fmaj
-1.112749	C#maj6 G#maj	-0.4384902
-2.559907	C#maj6 G#maj6
-2.559907	C#maj6 G#min
-1.217484	C#maj6 G#min7	-0.587523
-2.559907	C#maj6 Gmin
-1.656817	C#maj6 N	-0.3411991
-2.217484	C#maj7 </s>
-2.217484	C#maj7 A#maj	-0.4732747
-0.8464161	C#maj7 A#min	-0.5966878
-1.056116	C#maj7 A#min7	-0.3991091
-2.217484	C#maj7 A#seventh	-0.4454821
-1.819544	C#maj7 C#maj	-0.2588117
-0.9387304	C#maj7 C#maj6	-0.5326035
-1.314394	C#maj7 C#maj7	-0.4195052
-2.518514	C#maj7 C#min
-1.673416	C#maj7 C#seventh	-0.1616615
-2.518514	C#maj7 Cmaj
-1.564271	C#maj7 Cmin	-0.3202155
-1.673416	C#maj7 Cmin7	-0.8780677
-1.740363	C#maj7 Csus4	-0.01302981
-1.819544	C#maj7 D#maj	-0.7371372
-2.518514	C#maj7 D#maj6
-2.041393	C#maj7 D#min	-0.5946839
-1.564271	C#maj7 D#min7	-0.9911296
-1.439333	C#maj7 D#seventh	-0.265044
-1.819544	C#maj7 F#maj	-0.08881282
-1.217484	C#maj7 F#maj7	-0.5011957
-2.217484	C#maj7 Fmaj	-0.4647858
-1.615424	C#maj7 Fmin	-0.05891784
-2.041393	C#maj7 Fmin7	-0.2122884
-1	C#maj7 G#maj	-0.2584057
-2.518514	C#maj7 G#maj6
-1.518514	C#maj7 G#maj7	-0.7083436
-2.518514	C#maj7 G#ninth
-1.819544	C#maj7 G#seventh	-0.5419339
-2.041393	C#maj7 Gdim	-0.5903742
-1.740363	C#maj7 N	-0.2470855
-2.995489	C#min </s>
-3.47261	C#min A#dim
-2.995489	C#min A#maj	-0.4878725
-3.17158	C#min A#min	-0.4698939
-3.17158	C#min A#min7
-3.47261	C#min A#ninth
-2.694459	C#min A#seventh	-0.4344019
-1.051006	C#min Amaj	-0.5674877
-3.17158	C#min Amaj6
-2.130188	C#min Amaj7	-0.3588574
-2.150391	C#min Amin	-0.5361238
-3.47261	C#min Amin7
-2.77364	C#min Aninth	-0.5656792
-2.150391	C#min Aseventh	-0.7349095
-3.17158	C#min Baug	-0.4583718
-1.03486	C#min Bmaj	-0.2450745
-3.47261	C#min Bmaj6
-3.17158	C#min Bmaj7	-0.455537
-1.782414	C#min Bmin	-0.4074863
-2.518368	C#min Bmin7	-0.6940795
-2.431217	C#min Bseventh	-0.4815145
-2.77364	C#min C#dim	-0.3442821
-2.26849	C#min C#maj	-0.200772
-1.314248	C#min C#min	-0.2703753
-1.981248	C#min C#min7	-0.2783163
-2.87055	C#min C#seventh	-0.4692443
-2.47261	C#min Caug	-0.7398062
-2.431217	C#min Cdim	-0.6841142
-2.627512	C#min Cmaj
-1.892827	C#min Cmin	-0.8134915
-1.701758	C#min D#maj	-0.5172702
-1.77364	C#min D#min	-0.5187931
-3.17158	C#min D#min7	-0.4757683
-2.17158	C#min D#ninth	-1.267172
-2.130188	C#min D#seventh	-0.6552054
-2.518368	C#min D#sus4	0.2530736
-3.17158	C#min Ddim	-0.4693658
-1.77364	C#min Dmaj	-0.3739272
-2.431217	C#min Dmaj7	-0.490937
-2.995489	C#min Dmin
-2.518368	C#min Eaug	-0.5736232
-2.995489	C#min Edim	-0.5903742
-1.06099	C#min Emaj	-0.3231162
-1.538112	C#min Emaj6	-0.7056187
-2.87055	C#min Emaj7	-0.4254749
-2.17158	C#min Emin	-1.010163
-2.17158	C#min Eseventh	-0.880468
-0.9514721	C#min F#maj	-0.7188796
-3.17158	C#min F#maj6
-0.9322807	C#min F#min	-0.5415743
-1.96746	C#min F#min7	-0.3616217
-2.17158	C#min F#ninth	-0.2769227
-1.709182	C#min F#seventh	-0.6087934
-2.057637	C#min F#sus4	0.2944663
-2.87055	C#min Fmaj	-0.6922268
-2.694459	C#min Fmin	-0.422886
-3.47261	C#min Fseventh
-2.130188	C#min G#aug	-0.5501422
-1.207792	C#min G#maj	-0.3529913
-1.182576	C#min G#min	-0.3230419
-1.881546	C#min G#seventh	-0.9258142
-2.77364	C#min G#sus4	0.05391693
-3.47261	C#min Gaug
-3.17158	C#min Gmaj	-0.4749697
-1.96746	C#min N	-0.3775735
-2.808211	C#min7 A#maj6
-1.853969	C#min7 Amaj	-0.3278933
-2.109241	C#min7 Amaj7	-0.09305766
-2.507181	C#min7 Amin
-2.507181	C#min7 Aseventh
-1.240009	C#min7 Bmaj	-0.2229164
-1.63212	C#min7 Bmaj6	-0.3831637
-1.694268	C#min7 Bmaj7	-0.275451
-2.507181	C#min7 Bmin
-1.251908	C#min7 Bmin7	-0.3861448
-2.808211	C#min7 Bninth
-2.808211	C#min7 Bseventh
-2.808211	C#min7 Bsus4
-2.109241	C#min7 C#maj	-0.5025912
-2.206151	C#min7 C#maj6	-0.6768825
-1.63212	C#min7 C#min	-0.2689091
-1.002031	C#min7 C#min7	-0.4854829
-2.507181	C#min7 Caug	-0.4583718
-2.03006	C#min7 Cmaj	-0.3069391
-2.03006	C#min7 D#maj	-0.35193
-2.03006	C#min7 D#min	-0.8378707
-1.694268	C#min7 D#min7	-0.3516998
-2.33109	C#min7 D#seventh	-0.2150544
-2.206151	C#min7 Ddim	-0.08427567
-1.808211	C#min7 Dmaj	-0.2876604
-2.507181	C#min7 Dmaj7	-0.4313638
-2.808211	C#min7 Dmin7
-2.808211	C#min7 Dseventh
-2.03006	C#min7 Eaug	-0.3366148
-1.264143	C#min7 Emaj	-0.2912982
-2.03006	C#min7 Emaj7	-0.4193382
-2.507181	C#min7 Emin	-0.4493363
-2.206151	C#min7 Eseventh	-0.5436624
-1.00887	C#min7 F#maj	-0.3588845
-1.289697	C#min7 F#maj6	-0.8117523
-1.662083	C#min7 F#min	-0.8419311
-1.662083	C#min7 F#min7	-0.2569952
-2.507181	C#min7 F#ninth	-0.2646492
-1.083935	C#min7 F#seventh	-0.2183003
-1.361053	C#min7 F#sus4	-0.6303298
-1.72903	C#min7 G#maj	-0.5643288
-1.529457	C#min7 G#min	-0.2805967
-2.03006	C#min7 G#min7	-0.1672208
-1.963113	C#min7 G#seventh	-0.4377817
-2.33109	C#min7 Gdim	-0.2061968
-1.604091	C#min7 Gmaj	-0.7376456
-2.808211	C#min7 Gseventh
-2.206151	C#min7 N
-1.748188	C#ninth </s>
-1.924279	C#ninth A#maj	-0.4732747
-1.271067	C#ninth Bmaj	-0.1864709
-1.748188	C#ninth Bmin	-0.5991246
-1.526339	C#ninth Bninth	-0.762357
-1.623249	C#ninth C#maj	-0.2942013
-1.748188	C#ninth C#min7	-0.5938784
-1.924279	C#ninth C#ninth	-0.2646492
-1.924279	C#ninth C#seventh	-0.3218136
-1.924279	C#ninth D#min	-0.4493363
-1.924279	C#ninth D#seventh
-1.526339	C#ninth Emaj7	-0.7323938
-0.4123959	C#ninth F#maj	-0.2245421
-1.623249	C#ninth F#min	-0.1455425
-2.225309	C#ninth F#seventh
-1.447158	C#ninth G#maj	-0.1312057
-1.526339	C#ninth G#min	-0.2011846
-2.225309	C#ninth G#min7
-0.9242793	C#ninth Gseventh	-0.858507
-1.623249	C#ninth N	-0.1221467
-3.087781	C#seventh </s>
-3.087781	C#seventh A#maj6
-2.485721	C#seventh A#min
-2.242683	C#seventh A#min7	-0.1922231
-2.184691	C#seventh A#seventh	-0.3367082
-2.184691	C#seventh Amaj	-0.3338454
-1.70757	C#seventh Bmaj	0.05462998
-3.087781	C#seventh Bmaj6
-2.046389	C#seventh Bmaj7	-0.3149064
-2.786752	C#seventh Bninth	-0.4719201
-1.786751	C#seventh Bseventh	-0.7115591
-1.569268	C#seventh C#maj	-0.367335
-2.388811	C#seventh C#maj6	-0.2937916
-2.61066	C#seventh C#min7	-0.2136671
-2.61066	C#seventh C#ninth
-1.30963	C#seventh C#seventh	-0.3360728
-3.087781	C#seventh C#sus4
-1.809028	C#seventh Caug	-0.9480822
-2.61066	C#seventh Cmaj	-0.2214277
-3.087781	C#seventh Cmaj7
-2.61066	C#seventh Cmin	-0.2180288
-1.973838	C#seventh Cseventh	-0.3155536
-3.087781	C#seventh Csus4
-1.745359	C#seventh D#maj	-0.5260461
-2.046389	C#seventh D#min	-0.3431335
-2.786752	C#seventh D#min7
-3.087781	C#seventh D#ninth
-2.133539	C#seventh D#seventh	-0.2631308
-2.388811	C#seventh D#sus4	0.05391693
-2.485721	C#seventh Ddim	-0.1224334
-2.242683	C#seventh Dmaj	-0.1399269
-3.087781	C#seventh Dmaj6
-3.087781	C#seventh Dseventh
-1.745359	C#seventh Emaj	-0.2588285
-2.485721	C#seventh Emin	-0.2997115
-1.883661	C#seventh Eseventh	-0.5516652
-3.087781	C#seventh Esus4
-0.5219336	C#seventh F#maj	0.0892747
-2.61066	C#seventh F#maj7	-0.5749078
-1.062476	C#seventh F#min	-0.2500459
-1.973838	C#seventh F#min7	-0.315454
-2.30963	C#seventh F#ninth	-0.1311946
-1.153283	C#seventh F#seventh	-0.3121472
-2.046389	C#seventh F#sus4	-0.247113
-2.388811	C#seventh Fmaj	-0.490002
-1.765562	C#seventh Fmin	-0.4677639
-2.485721	C#seventh Fmin7	-0.1434179
-2.786752	C#seventh Fseventh	-0.4377817
-1.173968	C#seventh G#maj	-0.04624331
-1.809028	C#seventh G#min	-0.4418085
-1.973838	C#seventh G#min7	-0.3650725
-1.242683	C#seventh G#seventh	-0.4083283
-3.087781	C#seventh Gmaj
-2.786752	C#seventh Gmin7	-0.4744112
-1.809028	C#seventh N	-0.1504043
-2.294466	C#sus4 A#min
-0.06915694	C#sus4 C#maj	-0.2733541
-1.993436	C#sus4 C#min
-1.340224	C#sus4 C#seventh	-0.123072
-2.294466	C#sus4 D#maj
-1.692406	C#sus4 F#maj	-0.1379292
-1.993436	C#sus4 G#maj
-1.993436	C#sus4 N
-1.851258	Caug A#maj	-0.4617009
-1.30719	Caug Amaj	-0.5213738
-1.453318	Caug Amin	-0.2017732
-1.851258	Caug Amin7	-0.4730497
-1.374137	Caug Bmaj	-0.8380982
-1.374137	Caug C#maj	-0.1563863
-1.550228	Caug C#maj6	-0.6756219
-1.675167	Caug C#min	-0.6005948
-1.249198	Caug C#seventh	-0.9241272
-1.675167	Caug Cmaj	-0.2015171
-1.550228	Caug Cmin	-0.2794382
-1.374137	Caug D#maj	-0.5948891
-2.152288	Caug Dmin
-1.550228	Caug Dseventh	-0.6910931
-1.374137	Caug Emaj	-0.4056371
-1.374137	Caug Eseventh	-0.5611637
-1.851258	Caug F#dim	-0.4534266
-1.851258	Caug F#maj	-0.4366156
-1.675167	Caug F#min	-0.218766
-1.550228	Caug Fmaj	-0.1257964
-1.675167	Caug Fmaj7	-0.2178826
-0.8970158	Caug Fmin	-0.6203139
-1.073107	Caug Fmin7	-0.5194033
-2.152288	Caug G#maj
-1.274927	Cdim A#maj	-0.4093039
-1.752048	Cdim Amaj
-2.053078	Cdim Aseventh
-1.274927	Cdim Bmaj	-0.5835326
-1.752048	Cdim Bmin	-0.4493363
-0.9069504	Cdim Bmin7	-0.5549778
-1.149988	Cdim C#dim	-0.6001341
-0.8769872	Cdim C#maj	-0.4775699
-0.8769872	Cdim C#min	-0.5132651
-1.354108	Cdim Cmaj	-0.3269627
-2.053078	Cdim D#min
-2.053078	Cdim Dmin
-2.053078	Cdim Dmin7
-1.451018	Cdim Emaj	-0.03194055
-1.575957	Cdim F#dim	-0.5402076
-1.575957	Cdim Fmaj	-0.5897245
-1.752048	Cdim Fseventh	-0.4377817
-1.752048	Cdim Gmaj	-0.4728075
-1.575957	Cdim N	-0.4231767
-2.536558	Cmaj </s>
-3.536558	Cmaj A#dim	-0.1644055
-1.302717	Cmaj A#maj	-0.416241
-3.71265	Cmaj A#maj6	-0.4422595
-3.31471	Cmaj A#maj7	-0.7715207
-2.734926	Cmaj A#min	-0.3130755
-3.536558	Cmaj A#min7	-0.2191386
-2.482201	Cmaj A#seventh	-0.3143423
-3.235528	Cmaj A#sus4	0.4060995
-4.01368	Cmaj Aaug
-1.812283	Cmaj Amaj	-0.3066447
-1.339738	Cmaj Amin	-0.4447511
-2.132866	Cmaj Amin7	-0.2882024
-3.235528	Cmaj Aninth	-0.3723859
-2.41162	Cmaj Aseventh	-0.3149241
-4.01368	Cmaj Asus4
-4.01368	Cmaj Baug
-3.41162	Cmaj Bdim	-0.6752753
-2.00508	Cmaj Bmaj	-0.2948124
-2.306109	Cmaj Bmin	-0.3707472
-3.01368	Cmaj Bmin7	-0.1836056
-3.41162	Cmaj Bninth	-0.486498
-2.671257	Cmaj Bseventh	-0.3594209
-4.01368	Cmaj Bsus4
-2.837589	Cmaj C#dim	-0.7954186
-2.132866	Cmaj C#maj	-0.1465344
-4.01368	Cmaj C#min
-3.71265	Cmaj C#min7
-3.31471	Cmaj C#seventh	-0.1441976
-3.536558	Cmaj Caug	-0.1629821
-3.01368	Cmaj Cdim	-0.2452287
-1.045197	Cmaj Cmaj	-0.0352205
-3.168582	Cmaj Cmaj6	-0.2283796
-1.980256	Cmaj Cmaj7	-0.5213432
-2.162421	Cmaj Cmin	-0.5579545
-4.01368	Cmaj Cmin7
-3.059437	Cmaj Cninth	-0.251812
-1.806854	Cmaj Cseventh	-0.3117301
-2.242828	Cmaj Csus4	-0.1246631
-3.536558	Cmaj D#aug	-0.5927865
-3.31471	Cmaj D#dim	-0.3105335
-1.780684	Cmaj D#maj	-0.3707873
-2.899736	Cmaj D#maj6	-0.4834556
-3.168582	Cmaj D#min	-0.273245
-3.235528	Cmaj D#seventh	-0.2193579
-3.31471	Cmaj Daug	-0.3555675
-3.41162	Cmaj Ddim	-0.6670809
-1.050364	Cmaj Dmaj	-0.4118493
-3.235528	Cmaj Dmaj6	-0.1488784
-1.457377	Cmaj Dmin	-0.2524326
-2.250252	Cmaj Dmin7	-0.5133184
-3.235528	Cmaj Dninth	-0.4128471
-2.200766	Cmaj Dseventh	-0.300073
-2.934499	Cmaj Dsus4	-0.2818751
-3.11059	Cmaj Eaug	-0.5292543
-3.71265	Cmaj Edim	-0.4152689
-2.00508	Cmaj Emaj	-0.7838675
-1.796196	Cmaj Emin	-0.4450805
-2.598706	Cmaj Emin7	-0.3486409
-2.783231	Cmaj Eseventh	-0.936047
-3.168582	Cmaj Esus4	0.3549469
-3.71265	Cmaj F#dim	-0.4693658
-2.633468	Cmaj F#maj	-0.2435187
-3.41162	Cmaj F#min	-0.690402
-3.41162	Cmaj F#ninth	-0.2932046
-3.41162	Cmaj F#seventh	-0.2985391
-3.31471	Cmaj F#sus4	0.05391693
-3.41162	Cmaj Faug	-0.6834022
-0.6360093	Cmaj Fmaj	-0.1833864
-2.39043	Cmaj Fmaj6	-0.4376982
-2.633468	Cmaj Fmaj7	-0.4592097
-1.552782	Cmaj Fmin	-0.4385751
-3.11059	Cmaj Fmin7	-0.4999976
-3.168582	Cmaj Fninth	-0.4322246
-2.054638	Cmaj Fseventh	-0.4607308
-3.41162	Cmaj Fsus4	0.5310382
-3.01368	Cmaj G#aug	-0.7364526
-2.105195	Cmaj G#maj	-0.3188396
-3.71265	Cmaj G#min
-3.536558	Cmaj G#ninth	-0.5942347
-3.536558	Cmaj G#seventh	-0.220783
-3.01368	Cmaj Gaug	-0.466805
-0.7625284	Cmaj Gmaj	-0.3203102
-3.11059	Cmaj Gmaj6	-0.1787607
-3.536558	Cmaj Gmaj7	-0.5954294
-1.934498	Cmaj Gmin	-0.6026081
-2.80956	Cmaj Gmin7	-0.411149
-2.433896	Cmaj Gninth	-0.3927389
-2.162421	Cmaj Gseventh	-0.4641563
-1.728122	Cmaj N	-0.4535125
-2.559907	Cmaj6 </s>
-1.860937	Cmaj6 A#maj	-0.1995511
-2.258877	Cmaj6 A#maj6	-0.4686646
-1.480725	Cmaj6 Amaj	-0.6279927
-1.383815	Cmaj6 Amin	-0.366059
-1.329458	Cmaj6 Amin7	-0.5142151
-2.258877	Cmaj6 Aseventh
-1.957847	Cmaj6 Bmaj6	-0.4662179
-1.714809	Cmaj6 C#maj6	-0.3845761
-1.258877	Cmaj6 Cmaj	-0.2833582
-1.304634	Cmaj6 Cmaj6	-0.5678459
-2.559907	Cmaj6 Cmaj7
-1.355787	Cmaj6 Cmin	-0.7250471
-2.082785	Cmaj6 Cseventh	-0.06654111
-1.281153	Cmaj6 Dmaj	-0.2611245
-1.714809	Cmaj6 Dmaj6	-0.2925734
-1.860937	Cmaj6 Dmin	-0.7360998
-1.559907	Cmaj6 Dmin7	-0.440865
-2.258877	Cmaj6 Dninth	-0.2646492
-1.714809	Cmaj6 Dseventh	0.08275698
-2.559907	Cmaj6 Emaj
-2.559907	Cmaj6 F#min
-0.8040318	Cmaj6 Fmaj	-0.396109
-1.518514	Cmaj6 Fmaj6	-0.5105007
-1.258877	Cmaj6 Fmaj7	-0.3164151
-1.860937	Cmaj6 Fseventh	-0.6228436
-2.559907	Cmaj6 G#maj
-2.559907	Cmaj6 G#min
-1.112749	Cmaj6 Gmaj	-0.4384902
-2.559907	Cmaj6 Gmaj6
-2.559907	Cmaj6 Gmin
-1.217484	Cmaj6 Gmin7	-0.587523
-1.656817	Cmaj6 N	-0.3411991
-2.217484	Cmaj7 </s>
-2.217484	Cmaj7 Amaj	-0.4732747
-0.8464161	Cmaj7 Amin	-0.5966878
-1.056116	Cmaj7 Amin7	-0.3991091
-2.217484	Cmaj7 Aseventh	-0.4454821
-2.518514	Cmaj7 Bmaj
-1.564271	Cmaj7 Bmin	-0.3202155
-1.673416	Cmaj7 Bmin7	-0.8780677
-1.740363	Cmaj7 Bsus4	-0.01302981
-1.819544	Cmaj7 Cmaj	-0.2588117
-0.9387304	Cmaj7 Cmaj6	-0.5326035
-1.314394	Cmaj7 Cmaj7	-0.4195052
-2.518514	Cmaj7 Cmin
-1.673416	Cmaj7 Cseventh	-0.1616615
-1.819544	Cmaj7 Dmaj	-0.7371372
-2.518514	Cmaj7 Dmaj6
-2.041393	Cmaj7 Dmin	-0.5946839
-1.564271	Cmaj7 Dmin7	-0.9911296
-1.439333	Cmaj7 Dseventh	-0.265044
-2.217484	Cmaj7 Emaj	-0.4647858
-1.615424	Cmaj7 Emin	-0.05891784
-2.041393	Cmaj7 Emin7	-0.2122884
-2.041393	Cmaj7 F#dim	-0.5903742
-1.819544	Cmaj7 Fmaj	-0.08881282
-1.217484	Cmaj7 Fmaj7	-0.5011957
-1	Cmaj7 Gmaj	-0.2584057
-2.518514	Cmaj7 Gmaj6
-1.518514	Cmaj7 Gmaj7	-0.7083436
-2.518514	Cmaj7 Gninth
-1.819544	Cmaj7 Gseventh	-0.5419339
-1.740363	Cmaj7 N	-0.2470855
-2.995489	Cmin </s>
-3.17158	Cmin A#aug	-0.4583718
-1.03486	Cmin A#maj	-0.2450745
-3.47261	Cmin A#maj6
-3.17158	Cmin A#maj7	-0.455537
-1.782414	Cmin A#min	-0.4074863
-2.518368	Cmin A#min7	-0.6940795
-2.431217	Cmin A#seventh	-0.4815145
-3.47261	Cmin Adim
-2.995489	Cmin Amaj	-0.4878725
-3.17158	Cmin Amin	-0.4698939
-3.17158	Cmin Amin7
-3.47261	Cmin Aninth
-2.694459	Cmin Aseventh	-0.4344019
-2.47261	Cmin Baug	-0.7398062
-2.431217	Cmin Bdim	-0.6841142
-2.627512	Cmin Bmaj
-1.892827	Cmin Bmin	-0.8134915
-3.17158	Cmin C#dim	-0.4693658
-1.77364	Cmin C#maj	-0.3739272
-2.431217	Cmin C#maj7	-0.490937
-2.995489	Cmin C#min
-2.77364	Cmin Cdim	-0.3442821
-2.26849	Cmin Cmaj	-0.200772
-1.314248	Cmin Cmin	-0.2703753
-1.981248	Cmin Cmin7	-0.2783163
-2.87055	Cmin Cseventh	-0.4692443
-2.518368	Cmin D#aug	-0.5736232
-2.995489	Cmin D#dim	-0.5903742
-1.06099	Cmin D#maj	-0.3231162
-1.538112	Cmin D#maj6	-0.7056187
-2.87055	Cmin D#maj7	-0.4254749
-2.17158	Cmin D#min	-1.010163
-2.17158	Cmin D#seventh	-0.880468
-1.701758	Cmin Dmaj	-0.5172702
-1.77364	Cmin Dmin	-0.5187931
-3.17158	Cmin Dmin7	-0.4757683
-2.17158	Cmin Dninth	-1.267172
-2.130188	Cmin Dseventh	-0.6552054
-2.518368	Cmin Dsus4	0.2530736
-2.87055	Cmin Emaj	-0.6922268
-2.694459	Cmin Emin	-0.422886
-3.47261	Cmin Eseventh
-3.47261	Cmin F#aug
-3.17158	Cmin F#maj	-0.4749697
-0.9514721	Cmin Fmaj	-0.7188796
-3.17158	Cmin Fmaj6
-0.9322807	Cmin Fmin	-0.5415743
-1.96746	Cmin Fmin7	-0.3616217
-2.17158	Cmin Fninth	-0.2769227
-1.709182	Cmin Fseventh	-0.6087934
-2.057637	Cmin Fsus4	0.2944663
-1.051006	Cmin G#maj	-0.5674877
-3.17158	Cmin G#maj6
-2.130188	Cmin G#maj7	-0.3588574
-2.150391	Cmin G#min	-0.5361238
-3.47261	Cmin G#min7
-2.77364	Cmin G#ninth	-0.5656792
-2.150391	Cmin G#seventh	-0.7349095
-2.130188	Cmin Gaug	-0.5501422
-1.207792	Cmin Gmaj	-0.3529913
-1.182576	Cmin Gmin	-0.3230419
-1.881546	Cmin Gseventh	-0.9258142
-2.77364	Cmin Gsus4	0.05391693
-1.96746	Cmin N	-0.3775735
-1.240009	Cmin7 A#maj	-0.2229164
-1.63212	Cmin7 A#maj6	-0.3831637
-1.694268	Cmin7 A#maj7	-0.275451
-2.507181	Cmin7 A#min
-1.251908	Cmin7 A#min7	-0.3861448
-2.808211	Cmin7 A#ninth
-2.808211	Cmin7 A#seventh
-2.808211	Cmin7 A#sus4
-2.808211	Cmin7 Amaj6
-2.507181	Cmin7 Baug	-0.4583718
-2.03006	Cmin7 Bmaj	-0.3069391
-2.206151	Cmin7 C#dim	-0.08427567
-1.808211	Cmin7 C#maj	-0.2876604
-2.507181	Cmin7 C#maj7	-0.4313638
-2.808211	Cmin7 C#min7
-2.808211	Cmin7 C#seventh
-2.109241	Cmin7 Cmaj	-0.5025912
-2.206151	Cmin7 Cmaj6	-0.6768825
-1.63212	Cmin7 Cmin	-0.2689091
-1.002031	Cmin7 Cmin7	-0.4854829
-2.03006	Cmin7 D#aug	-0.3366148
-1.264143	Cmin7 D#maj	-0.2912982
-2.03006	Cmin7 D#maj7	-0.4193382
-2.507181	Cmin7 D#min	-0.4493363
-2.206151	Cmin7 D#seventh	-0.5436624
-2.03006	Cmin7 Dmaj	-0.35193
-2.03006	Cmin7 Dmin	-0.8378707
-1.694268	Cmin7 Dmin7	-0.3516998
-2.33109	Cmin7 Dseventh	-0.2150544
-2.33109	Cmin7 F#dim	-0.2061968
-1.604091	Cmin7 F#maj	-0.7376456
-2.808211	Cmin7 F#seventh
-1.00887	Cmin7 Fmaj	-0.3588845
-1.289697	Cmin7 Fmaj6	-0.8117523
-1.662083	Cmin7 Fmin	-0.8419311
-1.662083	Cmin7 Fmin7	-0.2569952
-2.507181	Cmin7 Fninth	-0.2646492
-1.083935	Cmin7 Fseventh	-0.2183003
-1.361053	Cmin7 Fsus4	-0.6303298
-1.853969	Cmin7 G#maj	-0.3278933
-2.109241	Cmin7 G#maj7	-0.09305766
-2.507181	Cmin7 G#min
-2.507181	Cmin7 G#seventh
-1.72903	Cmin7 Gmaj	-0.5643288
-1.529457	Cmin7 Gmin	-0.2805967
-2.03006	Cmin7 Gmin7	-0.1672208
-1.963113	Cmin7 Gseventh	-0.4377817
-2.206151	Cmin7 N
-1.748188	Cninth </s>
-1.271067	Cninth A#maj	-0.1864709
-1.748188	Cninth A#min	-0.5991246
-1.526339	Cninth A#ninth	-0.762357
-1.924279	Cninth Amaj	-0.4732747
-1.623249	Cninth Cmaj	-0.2942013
-1.748188	Cninth Cmin7	-0.5938784
-1.924279	Cninth Cninth	-0.2646492
-1.924279	Cninth Cseventh	-0.3218136
-1.526339	Cninth D#maj7	-0.7323938
-1.924279	Cninth Dmin	-0.4493363
-1.924279	Cninth Dseventh
-0.9242793	Cninth F#seventh	-0.858507
-0.4123959	Cninth Fmaj	-0.2245421
-1.623249	Cninth Fmin	-0.1455425
-2.225309	Cninth Fseventh
-1.447158	Cninth Gmaj	-0.1312057
-1.526339	Cninth Gmin	-0.2011846
-2.225309	Cninth Gmin7
-1.623249	Cninth N	-0.1221467
-3.087781	Cseventh </s>
-1.70757	Cseventh A#maj	0.05462998
-3.087781	Cseventh A#maj6
-2.046389	Cseventh A#maj7	-0.3149064
-2.786752	Cseventh A#ninth	-0.4719201
-1.786751	Cseventh A#seventh	-0.7115591
-3.087781	Cseventh Amaj6
-2.485721	Cseventh Amin
-2.242683	Cseventh Amin7	-0.1922231
-2.184691	Cseventh Aseventh	-0.3367082
-1.809028	Cseventh Baug	-0.9480822
-2.61066	Cseventh Bmaj	-0.2214277
-3.087781	Cseventh Bmaj7
-2.61066	Cseventh Bmin	-0.2180288
-1.973838	Cseventh Bseventh	-0.3155536
-3.087781	Cseventh Bsus4
-2.485721	Cseventh C#dim	-0.1224334
-2.242683	Cseventh C#maj	-0.1399269
-3.087781	Cseventh C#maj6
-3.087781	Cseventh C#seventh
-1.569268	Cseventh Cmaj	-0.367335
-2.388811	Cseventh Cmaj6	-0.2937916
-2.61066	Cseventh Cmin7	-0.2136671
-2.61066	Cseventh Cninth
-1.30963	Cseventh Cseventh	-0.3360728
-3.087781	Cseventh Csus4
-1.745359	Cseventh D#maj	-0.2588285
-2.485721	Cseventh D#min	-0.2997115
-1.883661	Cseventh D#seventh	-0.5516652
-3.087781	Cseventh D#sus4
-1.745359	Cseventh Dmaj	-0.5260461
-2.046389	Cseventh Dmin	-0.3431335
-2.786752	Cseventh Dmin7
-3.087781	Cseventh Dninth
-2.133539	Cseventh Dseventh	-0.2631308
-2.388811	Cseventh Dsus4	0.05391693
-2.388811	Cseventh Emaj	-0.490002
-1.765562	Cseventh Emin	-0.4677639
-2.485721	Cseventh Emin7	-0.1434179
-2.786752	Cseventh Eseventh	-0.4377817
-3.087781	Cseventh F#maj
-2.786752	Cseventh F#min7	-0.4744112
-0.5219336	Cseventh Fmaj	0.0892747
-2.61066	Cseventh Fmaj7	-0.5749078
-1.062476	Cseventh Fmin	-0.2500459
-1.973838	Cseventh Fmin7	-0.315454
-2.30963	Cseventh Fninth	-0.1311946
-1.153283	Cseventh Fseventh	-0.3121472
-2.046389	Cseventh Fsus4	-0.247113
-2.184691	Cseventh G#maj	-0.3338454
-1.173968	Cseventh Gmaj	-0.04624331
-1.809028	Cseventh Gmin	-0.4418085
-1.973838	Cseventh Gmin7	-0.3650725
-1.242683	Cseventh Gseventh	-0.4083283
-1.809028	Cseventh N	-0.1504043
-2.294466	Csus4 Amin
-0.06915694	Csus4 Cmaj	-0.2733541
-1.993436	Csus4 Cmin
-1.340224	Csus4 Cseventh	-0.123072
-2.294466	Csus4 Dmaj
-1.692406	Csus4 Fmaj	-0.1379292
-1.993436	Csus4 Gmaj
-1.993436	Csus4 N
-1.851258	D#aug Adim	-0.4534266
-1.851258	D#aug Amaj	-0.4366156
-1.675167	D#aug Amin	-0.218766
-2.152288	D#aug Bmaj
-1.851258	D#aug C#maj	-0.4617009
-1.30719	D#aug Cmaj	-0.5213738
-1.453318	D#aug Cmin	-0.2017732
-1.851258	D#aug Cmin7	-0.4730497
-1.675167	D#aug D#maj	-0.2015171
-1.550228	D#aug D#min	-0.2794382
-1.374137	D#aug Dmaj	-0.8380982
-1.374137	D#aug Emaj	-0.1563863
-1.550228	D#aug Emaj6	-0.6756219
-1.675167	D#aug Emin	-0.6005948
-1.249198	D#aug Eseventh	-0.9241272
-1.374137	D#aug F#maj	-0.5948891
-2.152288	D#aug Fmin
-1.550228	D#aug Fseventh	-0.6910931
-1.550228	D#aug G#maj	-0.1257964
-1.675167	D#aug G#maj7	-0.2178826
-0.8970158	D#aug G#min	-0.6203139
-1.073107	D#aug G#min7	-0.5194033
-1.374137	D#aug Gmaj	-0.4056371
-1.374137	D#aug Gseventh	-0.5611637
-1.752048	D#dim A#maj	-0.4728075
-1.575957	D#dim Adim	-0.5402076
-1.274927	D#dim C#maj	-0.4093039
-1.752048	D#dim Cmaj
-2.053078	D#dim Cseventh
-1.354108	D#dim D#maj	-0.3269627
-1.274927	D#dim Dmaj	-0.5835326
-1.752048	D#dim Dmin	-0.4493363
-0.9069504	D#dim Dmin7	-0.5549778
-1.149988	D#dim Edim	-0.6001341
-0.8769872	D#dim Emaj	-0.4775699
-0.8769872	D#dim Emin	-0.5132651
-2.053078	D#dim F#min
-2.053078	D#dim Fmin
-2.053078	D#dim Fmin7
-1.575957	D#dim G#maj	-0.5897245
-1.752048	D#dim G#seventh	-0.4377817
-1.451018	D#dim Gmaj	-0.03194055
-1.575957	D#dim N	-0.4231767
-2.536558	D#maj </s>
-3.01368	D#maj A#aug	-0.466805
-0.7625284	D#maj A#maj	-0.3203102
-3.11059	D#maj A#maj6	-0.1787607
-3.536558	D#maj A#maj7	-0.5954294
-1.934498	D#maj A#min	-0.6026081
-2.80956	D#maj A#min7	-0.411149
-2.433896	D#maj A#ninth	-0.3927389
-2.162421	D#maj A#seventh	-0.4641563
-3.71265	D#maj Adim	-0.4693658
-2.633468	D#maj Amaj	-0.2435187
-3.41162	D#maj Amin	-0.690402
-3.41162	D#maj Aninth	-0.2932046
-3.41162	D#maj Aseventh	-0.2985391
-3.31471	D#maj Asus4	0.05391693
-3.01368	D#maj Baug	-0.7364526
-2.105195	D#maj Bmaj	-0.3188396
-3.71265	D#maj Bmin
-3.536558	D#maj Bninth	-0.5942347
-3.536558	D#maj Bseventh	-0.220783
-3.536558	D#maj C#dim	-0.1644055
-1.302717	D#maj C#maj	-0.416241
-3.71265	D#maj C#maj6	-0.4422595
-3.31471	D#maj C#maj7	-0.7715207
-2.734926	D#maj C#min	-0.3130755
-3.536558	D#maj C#min7	-0.2191386
-2.482201	D#maj C#seventh	-0.3143423
-3.235528	D#maj C#sus4	0.4060995
-4.01368	D#maj Caug
-1.812283	D#maj Cmaj	-0.3066447
-1.339738	D#maj Cmin	-0.4447511
-2.132866	D#maj Cmin7	-0.2882024
-3.235528	D#maj Cninth	-0.3723859
-2.41162	D#maj Cseventh	-0.3149241
-4.01368	D#maj Csus4
-3.536558	D#maj D#aug	-0.1629821
-3.01368	D#maj D#dim	-0.2452287
-1.045197	D#maj D#maj	-0.0352205
-3.168582	D#maj D#maj6	-0.2283796
-1.980256	D#maj D#maj7	-0.5213432
-2.162421	D#maj D#min	-0.5579545
-4.01368	D#maj D#min7
-3.059437	D#maj D#ninth	-0.251812
-1.806854	D#maj D#seventh	-0.3117301
-2.242828	D#maj D#sus4	-0.1246631
-4.01368	D#maj Daug
-3.41162	D#maj Ddim	-0.6752753
-2.00508	D#maj Dmaj	-0.2948124
-2.306109	D#maj Dmin	-0.3707472
-3.01368	D#maj Dmin7	-0.1836056
-3.41162	D#maj Dninth	-0.486498
-2.671257	D#maj Dseventh	-0.3594209
-4.01368	D#maj Dsus4
-2.837589	D#maj Edim	-0.7954186
-2.132866	D#maj Emaj	-0.1465344
-4.01368	D#maj Emin
-3.71265	D#maj Emin7
-3.31471	D#maj Eseventh	-0.1441976
-3.536558	D#maj F#aug	-0.5927865
-3.31471	D#maj F#dim	-0.3105335
-1.780684	D#maj F#maj	-0.3707873
-2.899736	D#maj F#maj6	-0.4834556
-3.168582	D#maj F#min	-0.273245
-3.235528	D#maj F#seventh	-0.2193579
-3.31471	D#maj Faug	-0.3555675
-3.41162	D#maj Fdim	-0.6670809
-1.050364	D#maj Fmaj	-0.4118493
-3.235528	D#maj Fmaj6	-0.1488784
-1.457377	D#maj Fmin	-0.2524326
-2.250252	D#maj Fmin7	-0.5133184
-3.235528	D#maj Fninth	-0.4128471
-2.200766	D#maj Fseventh	-0.300073
-2.934499	D#maj Fsus4	-0.2818751
-3.41162	D#maj G#aug	-0.6834022
-0.6360093	D#maj G#maj	-0.1833864
-2.39043	D#maj G#maj6	-0.4376982
-2.633468	D#maj G#maj7	-0.4592097
-1.552782	D#maj G#min	-0.4385751
-3.11059	D#maj G#min7	-0.4999976
-3.168582	D#maj G#ninth	-0.4322246
-2.054638	D#maj G#seventh	-0.4607308
-3.41162	D#maj G#sus4	0.5310382
-3.11059	D#maj Gaug	-0.5292543
-3.71265	D#maj Gdim	-0.4152689
-2.00508	D#maj Gmaj	-0.7838675
-1.796196	D#maj Gmin	-0.4450805
-2.598706	D#maj Gmin7	-0.3486409
-2.783231	D#maj Gseventh	-0.936047
-3.168582	D#maj Gsus4	0.3549469
-1.728122	D#maj N	-0.4535125
-2.559907	D#maj6 </s>
-1.112749	D#maj6 A#maj	-0.4384902
-2.559907	D#maj6 A#maj6
-2.559907	D#maj6 A#min
-1.217484	D#maj6 A#min7	-0.587523
-2.559907	D#maj6 Amin
-2.559907	D#maj6 Bmaj
-2.559907	D#maj6 Bmin
-1.860937	D#maj6 C#maj	-0.1995511
-2.258877	D#maj6 C#maj6	-0.4686646
-1.480725	D#maj6 Cmaj	-0.6279927
-1.383815	D#maj6 Cmin	-0.366059
-1.329458	D#maj6 Cmin7	-0.5142151
-2.258877	D#maj6 Cseventh
-1.258877	D#maj6 D#maj	-0.2833582
-1.304634	D#maj6 D#maj6	-0.5678459
-2.559907	D#maj6 D#maj7
-1.355787	D#maj6 D#min	-0.7250471
-2.082785	D#maj6 D#seventh	-0.06654111
-1.957847	D#maj6 Dmaj6	-0.4662179
-1.714809	D#maj6 Emaj6	-0.3845761
-1.281153	D#maj6 Fmaj	-0.2611245
-1.714809	D#maj6 Fmaj6	-0.2925734
-1.860937	D#maj6 Fmin	-0.7360998
-1.559907	D#maj6 Fmin7	-0.440865
-2.258877	D#maj6 Fninth	-0.2646492
-1.714809	D#maj6 Fseventh	0.08275698
-0.8040318	D#maj6 G#maj	-0.396109
-1.518514	D#maj6 G#maj6	-0.5105007
-1.258877	D#maj6 G#maj7	-0.3164151
-1.860937	D#maj6 G#seventh	-0.6228436
-2.559907	D#maj6 Gmaj
-1.656817	D#maj6 N	-0.3411991
-2.217484	D#maj7 </s>
-1	D#maj7 A#maj	-0.2584057
-2.518514	D#maj7 A#maj6
-1.518514	D#maj7 A#maj7	-0.7083436
-2.518514	D#maj7 A#ninth
-1.819544	D#maj7 A#seventh	-0.5419339
-2.041393	D#maj7 Adim	-0.5903742
-2.217484	D#maj7 Cmaj	-0.4732747
-0.8464161	D#maj7 Cmin	-0.5966878
-1.056116	D#maj7 Cmin7	-0.3991091
-2.217484	D#maj7 Cseventh	-0.4454821
-1.819544	D#maj7 D#maj	-0.2588117
-0.9387304	D#maj7 D#maj6	-0.5326035
-1.314394	D#maj7 D#maj7	-0.4195052
-2.518514	D#maj7 D#min
-1.673416	D#maj7 D#seventh	-0.1616615
-2.518514	D#maj7 Dmaj
-1.564271	D#maj7 Dmin	-0.3202155
-1.673416	D#maj7 Dmin7	-0.8780677
-1.740363	D#maj7 Dsus4	-0.01302981
-1.819544	D#maj7 Fmaj	-0.7371372
-2.518514	D#maj7 Fmaj6
-2.041393	D#maj7 Fmin	-0.5946839
-1.564271	D#maj7 Fmin7	-0.9911296
-1.439333	D#maj7 Fseventh	-0.265044
-1.819544	D#maj7 G#maj	-0.08881282
-1.217484	D#maj7 G#maj7	-0.5011957
-2.217484	D#maj7 Gmaj	-0.4647858
-1.615424	D#maj7 Gmin	-0.05891784
-2.041393	D#maj7 Gmin7	-0.2122884
-1.740363	D#maj7 N	-0.2470855
-2.995489	D#min </s>
-2.130188	D#min A#aug	-0.5501422
-1.207792	D#min A#maj	-0.3529913
-1.182576	D#min A#min	-0.3230419
-1.881546	D#min A#seventh	-0.9258142
-2.77364	D#min A#sus4	0.05391693
-3.47261	D#min Aaug
-3.17158	D#min Amaj	-0.4749697
-1.051006	D#min Bmaj	-0.5674877
-3.17158	D#min Bmaj6
-2.130188	D#min Bmaj7	-0.3588574
-2.150391	D#min Bmin	-0.5361238
-3.47261	D#min Bmin7
-2.77364	D#min Bninth	-0.5656792
-2.150391	D#min Bseventh	-0.7349095
-3.17158	D#min C#aug	-0.4583718
-1.03486	D#min C#maj	-0.2450745
-3.47261	D#min C#maj6
-3.17158	D#min C#maj7	-0.455537
-1.782414	D#min C#min	-0.4074863
-2.518368	D#min C#min7	-0.6940795
-2.431217	D#min C#seventh	-0.4815145
-3.47261	D#min Cdim
-2.995489	D#min Cmaj	-0.4878725
-3.17158	D#min Cmin	-0.4698939
-3.17158	D#min Cmin7
-3.47261	D#min Cninth
-2.694459	D#min Cseventh	-0.4344019
-2.77364	D#min D#dim	-0.3442821
-2.26849	D#min D#maj	-0.200772
-1.314248	D#min D#min	-0.2703753
-1.981248	D#min D#min7	-0.2783163
-2.87055	D#min D#seventh	-0.4692443
-2.47261	D#min Daug	-0.7398062
-2.431217	D#min Ddim	-0.6841142
-2.627512	D#min Dmaj
-1.892827	D#min Dmin	-0.8134915
-3.17158	D#min Edim	-0.4693658
-1.77364	D#min Emaj	-0.3739272
-2.431217	D#min Emaj7	-0.490937
-2.995489	D#min Emin
-2.518368	D#min F#aug	-0.5736232
-2.995489	D#min F#dim	-0.5903742
-1.06099	D#min F#maj	-0.3231162
-1.538112	D#min F#maj6	-0.7056187
-2.87055	D#min F#maj7	-0.4254749
-2.17158	D#min F#min	-1.010163
-2.17158	D#min F#seventh	-0.880468
-1.701758	D#min Fmaj	-0.5172702
-1.77364	D#min Fmin	-0.5187931
-3.17158	D#min Fmin7	-0.4757683
-2.17158	D#min Fninth	-1.267172
-2.130188	D#min Fseventh	-0.6552054
-2.518368	D#min Fsus4	0.2530736
-0.9514721	D#min G#maj	-0.7188796
-3.17158	D#min G#maj6
-0.9322807	D#min G#min	-0.5415743
-1.96746	D#min G#min7	-0.3616217
-2.17158	D#min G#ninth	-0.2769227
-1.709182	D#min G#seventh	-0.6087934
-2.057637	D#min G#sus4	0.2944663
-2.87055	D#min Gmaj	-0.6922268
-2.694459	D#min Gmin	-0.422886
-3.47261	D#min Gseventh
-1.96746	D#min N	-0.3775735
-1.72903	D#min7 A#maj	-0.5643288
-1.529457	D#min7 A#min	-0.2805967
-2.03006	D#min7 A#min7	-0.1672208
-1.963113	D#min7 A#seventh	-0.4377817
-2.33109	D#min7 Adim	-0.2061968
-1.604091	D#min7 Amaj	-0.7376456
-2.808211	D#min7 Aseventh
-1.853969	D#min7 Bmaj	-0.3278933
-2.109241	D#min7 Bmaj7	-0.09305766
-2.507181	D#min7 Bmin
-2.507181	D#min7 Bseventh
-1.240009	D#min7 C#maj	-0.2229164
-1.63212	D#min7 C#maj6	-0.3831637
-1.694268	D#min7 C#maj7	-0.275451
-2.507181	D#min7 C#min
-1.251908	D#min7 C#min7	-0.3861448
-2.808211	D#min7 C#ninth
-2.808211	D#min7 C#seventh
-2.808211	D#min7 C#sus4
-2.808211	D#min7 Cmaj6
-2.109241	D#min7 D#maj	-0.5025912
-2.206151	D#min7 D#maj6	-0.6768825
-1.63212	D#min7 D#min	-0.2689091
-1.002031	D#min7 D#min7	-0.4854829
-2.507181	D#min7 Daug	-0.4583718
-2.03006	D#min7 Dmaj	-0.3069391
-2.206151	D#min7 Edim	-0.08427567
-1.808211	D#min7 Emaj	-0.2876604
-2.507181	D#min7 Emaj7	-0.4313638
-2.808211	D#min7 Emin7
-2.808211	D#min7 Eseventh
-2.03006	D#min7 F#aug	-0.3366148
-1.264143	D#min7 F#maj	-0.2912982
-2.03006	D#min7 F#maj7	-0.4193382
-2.507181	D#min7 F#min	-0.4493363
-2.206151	D#min7 F#seventh	-0.5436624
-2.03006	D#min7 Fmaj	-0.35193
-2.03006	D#min7 Fmin	-0.8378707
-1.694268	D#min7 Fmin7	-0.3516998
-2.33109	D#min7 Fseventh	-0.2150544
-1.00887	D#min7 G#maj	-0.3588845
-1.289697	D#min7 G#maj6	-0.8117523
-1.662083	D#min7 G#min	-0.8419311
-1.662083	D#min7 G#min7	-0.2569952
-2.507181	D#min7 G#ninth	-0.2646492
-1.083935	D#min7 G#seventh	-0.2183003
-1.361053	D#min7 G#sus4	-0.6303298
-2.206151	D#min7 N
-1.748188	D#ninth </s>
-1.447158	D#ninth A#maj	-0.1312057
-1.526339	D#ninth A#min	-0.2011846
-2.225309	D#ninth A#min7
-0.9242793	D#ninth Aseventh	-0.858507
-1.271067	D#ninth C#maj	-0.1864709
-1.748188	D#ninth C#min	-0.5991246
-1.526339	D#ninth C#ninth	-0.762357
-1.924279	D#ninth Cmaj	-0.4732747
-1.623249	D#ninth D#maj	-0.2942013
-1.748188	D#ninth D#min7	-0.5938784
-1.924279	D#ninth D#ninth	-0.2646492
-1.924279	D#ninth D#seventh	-0.3218136
-1.526339	D#ninth F#maj7	-0.7323938
-1.924279	D#ninth Fmin	-0.4493363
-1.924279	D#ninth Fseventh
-0.4123959	D#ninth G#maj	-0.2245421
-1.623249	D#ninth G#min	-0.1455425
-2.225309	D#ninth G#seventh
-1.623249	D#ninth N	-0.1221467
-3.087781	D#seventh </s>
-1.173968	D#seventh A#maj	-0.04624331
-1.809028	D#seventh A#min	-0.4418085
-1.973838	D#seventh A#min7	-0.3650725
-1.242683	D#seventh A#seventh	-0.4083283
-3.087781	D#seventh Amaj
-2.786752	D#seventh Amin7	-0.4744112
-2.184691	D#seventh Bmaj	-0.3338454
-1.70757	D#seventh C#maj	0.05462998
-3.087781	D#seventh C#maj6
-2.046389	D#seventh C#maj7	-0.3149064
-2.786752	D#seventh C#ninth	-0.4719201
-1.786751	D#seventh C#seventh	-0.7115591
-3.087781	D#seventh Cmaj6
-2.485721	D#seventh Cmin
-2.242683	D#seventh Cmin7	-0.1922231
-2.184691	D#seventh Cseventh	-0.3367082
-1.569268	D#seventh D#maj	-0.367335
-2.388811	D#seventh D#maj6	-0.2937916
-2.61066	D#seventh D#min7	-0.2136671
-2.61066	D#seventh D#ninth
-1.30963	D#seventh D#seventh	-0.3360728
-3.087781	D#seventh D#sus4
-1.809028	D#seventh Daug	-0.9480822
-2.61066	D#seventh Dmaj	-0.2214277
-3.087781	D#seventh Dmaj7
-2.61066	D#seventh Dmin	-0.2180288
-1.973838	D#seventh Dseventh	-0.3155536
-3.087781	D#seventh Dsus4
-2.485721	D#seventh Edim	-0.1224334
-2.242683	D#seventh Emaj	-0.1399269
-3.087781	D#seventh Emaj6
-3.087781	D#seventh Eseventh
-1.745359	D#seventh F#maj	-0.2588285
-2.485721	D#seventh F#min	-0.2997115
-1.883661	D#seventh F#seventh	-0.5516652
-3.087781	D#seventh F#sus4
-1.745359	D#seventh Fmaj	-0.5260461
-2.046389	D#seventh Fmin	-0.3431335
-2.786752	D#seventh Fmin7
-3.087781	D#seventh Fninth
-2.133539	D#seventh Fseventh	-0.2631308
-2.388811	D#seventh Fsus4	0.05391693
-0.5219336	D#seventh G#maj	0.0892747
-2.61066	D#seventh G#maj7	-0.5749078
-1.062476	D#seventh G#min	-0.2500459
-1.973838	D#seventh G#min7	-0.315454
-2.30963	D#seventh G#ninth	-0.1311946
-1.153283	D#seventh G#seventh	-0.3121472
-2.046389	D#seventh G#sus4	-0.247113
-2.388811	D#seventh Gmaj	-0.490002
-1.765562	D#seventh Gmin	-0.4677639
-2.485721	D#seventh Gmin7	-0.1434179
-2.786752	D#seventh Gseventh	-0.4377817
-1.809028	D#seventh N	-0.1504043
-1.993436	D#sus4 A#maj
-2.294466	D#sus4 Cmin
-0.06915694	D#sus4 D#maj	-0.2733541
-1.993436	D#sus4 D#min
-1.340224	D#sus4 D#seventh	-0.123072
-2.294466	D#sus4 Fmaj
-1.692406	D#sus4 G#maj	-0.1379292
-1.993436	D#sus4 N
-2.152288	Daug A#maj
-1.30719	Daug Bmaj	-0.5213738
-1.453318	Daug Bmin	-0.2017732
-1.851258	Daug Bmin7	-0.4730497
-1.374137	Daug C#maj	-0.8380982
-1.851258	Daug Cmaj	-0.4617009
-1.374137	Daug D#maj	-0.1563863
-1.550228	Daug D#maj6	-0.6756219
-1.675167	Daug D#min	-0.6005948
-1.249198	Daug D#seventh	-0.9241272
-1.675167	Daug Dmaj	-0.2015171
-1.550228	Daug Dmin	-0.2794382
-2.152288	Daug Emin
-1.550228	Daug Eseventh	-0.6910931
-1.374137	Daug F#maj	-0.4056371
-1.374137	Daug F#seventh	-0.5611637
-1.374137	Daug Fmaj	-0.5948891
-1.851258	Daug G#dim	-0.4534266
-1.851258	Daug G#maj	-0.4366156
-1.675167	Daug G#min	-0.218766
-1.550228	Daug Gmaj	-0.1257964
-1.675167	Daug Gmaj7	-0.2178826
-0.8970158	Daug Gmin	-0.6203139
-1.073107	Daug Gmin7	-0.5194033
-1.752048	Ddim Amaj	-0.4728075
-1.752048	Ddim Bmaj
-2.053078	Ddim Bseventh
-1.274927	Ddim C#maj	-0.5835326
-1.752048	Ddim C#min	-0.4493363
-0.9069504	Ddim C#min7	-0.5549778
-1.274927	Ddim Cmaj	-0.4093039
-1.149988	Ddim D#dim	-0.6001341
-0.8769872	Ddim D#maj	-0.4775699
-0.8769872	Ddim D#min	-0.5132651
-1.354108	Ddim Dmaj	-0.3269627
-2.053078	Ddim Emin
-2.053078	Ddim Emin7
-1.451018	Ddim F#maj	-0.03194055
-2.053078	Ddim Fmin
-1.575957	Ddim G#dim	-0.5402076
-1.575957	Ddim Gmaj	-0.5897245
-1.752048	Ddim Gseventh	-0.4377817
-1.575957	Ddim N	-0.4231767
-2.536558	Dmaj </s>
-3.01368	Dmaj A#aug	-0.7364526
-2.105195	Dmaj A#maj	-0.3188396
-3.71265	Dmaj A#min
-3.536558	Dmaj A#ninth	-0.5942347
-3.536558	Dmaj A#seventh	-0.220783
-3.01368	Dmaj Aaug	-0.466805
-0.7625284	Dmaj Amaj	-0.3203102
-3.11059	Dmaj Amaj6	-0.1787607
-3.536558	Dmaj Amaj7	-0.5954294
-1.934498	Dmaj Amin	-0.6026081
-2.80956	Dmaj Amin7	-0.411149
-2.433896	Dmaj Aninth	-0.3927389
-2.162421	Dmaj Aseventh	-0.4641563
-4.01368	Dmaj Baug
-1.812283	Dmaj Bmaj	-0.3066447
-1.339738	Dmaj Bmin	-0.4447511
-2.132866	Dmaj Bmin7	-0.2882024
-3.235528	Dmaj Bninth	-0.3723859
-2.41162	Dmaj Bseventh	-0.3149241
-4.01368	Dmaj Bsus4
-4.01368	Dmaj C#aug
-3.41162	Dmaj C#dim	-0.6752753
-2.00508	Dmaj C#maj	-0.2948124
-2.306109	Dmaj C#min	-0.3707472
-3.01368	Dmaj C#min7	-0.1836056
-3.41162	Dmaj C#ninth	-0.486498
-2.671257	Dmaj C#seventh	-0.3594209
-4.01368	Dmaj C#sus4
-3.536558	Dmaj Cdim	-0.1644055
-1.302717	Dmaj Cmaj	-0.416241
-3.71265	Dmaj Cmaj6	-0.4422595
-3.31471	Dmaj Cmaj7	-0.7715207
-2.734926	Dmaj Cmin	-0.3130755
-3.536558	Dmaj Cmin7	-0.2191386
-2.482201	Dmaj Cseventh	-0.3143423
-3.235528	Dmaj Csus4	0.4060995
-2.837589	Dmaj D#dim	-0.7954186
-2.132866	Dmaj D#maj	-0.1465344
-4.01368	Dmaj D#min
-3.71265	Dmaj D#min7
-3.31471	Dmaj D#seventh	-0.1441976
-3.536558	Dmaj Daug	-0.1629821
-3.01368	Dmaj Ddim	-0.2452287
-1.045197	Dmaj Dmaj	-0.0352205
-3.168582	Dmaj Dmaj6	-0.2283796
-1.980256	Dmaj Dmaj7	-0.5213432
-2.162421	Dmaj Dmin	-0.5579545
-4.01368	Dmaj Dmin7
-3.059437	Dmaj Dninth	-0.251812
-1.806854	Dmaj Dseventh	-0.3117301
-2.242828	Dmaj Dsus4	-0.1246631
-3.31471	Dmaj Eaug	-0.3555675
-3.41162	Dmaj Edim	-0.6670809
-1.050364	Dmaj Emaj	-0.4118493
-3.235528	Dmaj Emaj6	-0.1488784
-1.457377	Dmaj Emin	-0.2524326
-2.250252	Dmaj Emin7	-0.5133184
-3.235528	Dmaj Eninth	-0.4128471
-2.200766	Dmaj Eseventh	-0.300073
-2.934499	Dmaj Esus4	-0.2818751
-3.11059	Dmaj F#aug	-0.5292543
-3.71265	Dmaj F#dim	-0.4152689
-2.00508	Dmaj F#maj	-0.7838675
-1.796196	Dmaj F#min	-0.4450805
-2.598706	Dmaj F#min7	-0.3486409
-2.783231	Dmaj F#seventh	-0.936047
-3.168582	Dmaj F#sus4	0.3549469
-3.536558	Dmaj Faug	-0.5927865
-3.31471	Dmaj Fdim	-0.3105335
-1.780684	Dmaj Fmaj	-0.3707873
-2.899736	Dmaj Fmaj6	-0.4834556
-3.168582	Dmaj Fmin	-0.273245
-3.235528	Dmaj Fseventh	-0.2193579
-3.71265	Dmaj G#dim	-0.4693658
-2.633468	Dmaj G#maj	-0.2435187
-3.41162	Dmaj G#min	-0.690402
-3.41162	Dmaj G#ninth	-0.2932046
-3.41162	Dmaj G#seventh	-0.2985391
-3.31471	Dmaj G#sus4	0.05391693
-3.41162	Dmaj Gaug	-0.6834022
-0.6360093	Dmaj Gmaj	-0.1833864
-2.39043	Dmaj Gmaj6	-0.4376982
-2.633468	Dmaj Gmaj7	-0.4592097
-1.552782	Dmaj Gmin	-0.4385751
-3.11059	Dmaj Gmin7	-0.4999976
-3.168582	Dmaj Gninth	-0.4322246
-2.054638	Dmaj Gseventh	-0.4607308
-3.41162	Dmaj Gsus4	0.5310382
-1.728122	Dmaj N	-0.4535125
-2.559907	Dmaj6 </s>
-2.559907	Dmaj6 A#maj
-2.559907	Dmaj6 A#min
-1.112749	Dmaj6 Amaj	-0.4384902
-2.559907	Dmaj6 Amaj6
-2.559907	Dmaj6 Amin
-1.217484	Dmaj6 Amin7	-0.587523
-1.480725	Dmaj6 Bmaj	-0.6279927
-1.383815	Dmaj6 Bmin	-0.366059
-1.329458	Dmaj6 Bmin7	-0.5142151
-2.258877	Dmaj6 Bseventh
-1.957847	Dmaj6 C#maj6	-0.4662179
-1.860937	Dmaj6 Cmaj	-0.1995511
-2.258877	Dmaj6 Cmaj6	-0.4686646
-1.714809	Dmaj6 D#maj6	-0.3845761
-1.258877	Dmaj6 Dmaj	-0.2833582
-1.304634	Dmaj6 Dmaj6	-0.5678459
-2.559907	Dmaj6 Dmaj7
-1.355787	Dmaj6 Dmin	-0.7250471
-2.082785	Dmaj6 Dseventh	-0.06654111
-1.281153	Dmaj6 Emaj	-0.2611245
-1.714809	Dmaj6 Emaj6	-0.2925734
-1.860937	Dmaj6 Emin	-0.7360998
-1.559907	Dmaj6 Emin7	-0.440865
-2.258877	Dmaj6 Eninth	-0.2646492
-1.714809	Dmaj6 Eseventh	0.08275698
-2.559907	Dmaj6 F#maj
-2.559907	Dmaj6 G#min
-0.8040318	Dmaj6 Gmaj	-0.396109
-1.518514	Dmaj6 Gmaj6	-0.5105007
-1.258877	Dmaj6 Gmaj7	-0.3164151
-1.860937	Dmaj6 Gseventh	-0.6228436
-1.656817	Dmaj6 N	-0.3411991
-2.217484	Dmaj7 </s>
-1	Dmaj7 Amaj	-0.2584057
-2.518514	Dmaj7 Amaj6
-1.518514	Dmaj7 Amaj7	-0.7083436
-2.518514	Dmaj7 Aninth
-1.819544	Dmaj7 Aseventh	-0.5419339
-2.217484	Dmaj7 Bmaj	-0.4732747
-0.8464161	Dmaj7 Bmin	-0.5966878
-1.056116	Dmaj7 Bmin7	-0.3991091
-2.217484	Dmaj7 Bseventh	-0.4454821
-2.518514	Dmaj7 C#maj
-1.564271	Dmaj7 C#min	-0.3202155
-1.673416	Dmaj7 C#min7	-0.8780677
-1.740363	Dmaj7 C#sus4	-0.01302981
-1.819544	Dmaj7 Dmaj	-0.2588117
-0.9387304	Dmaj7 Dmaj6	-0.5326035
-1.314394	Dmaj7 Dmaj7	-0.4195052
-2.518514	Dmaj7 Dmin
-1.673416	Dmaj7 Dseventh	-0.1616615
-1.819544	Dmaj7 Emaj	-0.7371372
-2.518514	Dmaj7 Emaj6
-2.041393	Dmaj7 Emin	-0.5946839
-1.564271	Dmaj7 Emin7	-0.9911296
-1.439333	Dmaj7 Eseventh	-0.265044
-2.217484	Dmaj7 F#maj	-0.4647858
-1.615424	Dmaj7 F#min	-0.05891784
-2.041393	Dmaj7 F#min7	-0.2122884
-2.041393	Dmaj7 G#dim	-0.5903742
-1.819544	Dmaj7 Gmaj	-0.08881282
-1.217484	Dmaj7 Gmaj7	-0.5011957
-1.740363	Dmaj7 N	-0.2470855
-2.995489	Dmin </s>
-1.051006	Dmin A#maj	-0.5674877
-3.17158	Dmin A#maj6
-2.130188	Dmin A#maj7	-0.3588574
-2.150391	Dmin A#min	-0.5361238
-3.47261	Dmin A#min7
-2.77364	Dmin A#ninth	-0.5656792
-2.150391	Dmin A#seventh	-0.7349095
-2.130188	Dmin Aaug	-0.5501422
-1.207792	Dmin Amaj	-0.3529913
-1.182576	Dmin Amin	-0.3230419
-1.881546	Dmin Aseventh	-0.9258142
-2.77364	Dmin Asus4	0.05391693
-3.47261	Dmin Bdim
-2.995489	Dmin Bmaj	-0.4878725
-3.17158	Dmin Bmin	-0.4698939
-3.17158	Dmin Bmin7
-3.47261	Dmin Bninth
-2.694459	Dmin Bseventh	-0.4344019
-2.47261	Dmin C#aug	-0.7398062
-2.431217	Dmin C#dim	-0.6841142
-2.627512	Dmin C#maj
-1.892827	Dmin C#min	-0.8134915
-3.17158	Dmin Caug	-0.4583718
-1.03486	Dmin Cmaj	-0.2450745
-3.47261	Dmin Cmaj6
-3.17158	Dmin Cmaj7	-0.455537
-1.782414	Dmin Cmin	-0.4074863
-2.518368	Dmin Cmin7	-0.6940795
-2.431217	Dmin Cseventh	-0.4815145
-3.17158	Dmin D#dim	-0.4693658
-1.77364	Dmin D#maj	-0.3739272
-2.431217	Dmin D#maj7	-0.490937
-2.995489	Dmin D#min
-2.77364	Dmin Ddim	-0.3442821
-2.26849	Dmin Dmaj	-0.200772
-1.314248	Dmin Dmin	-0.2703753
-1.981248	Dmin Dmin7	-0.2783163
-2.87055	Dmin Dseventh	-0.4692443
-1.701758	Dmin Emaj	-0.5172702
-1.77364	Dmin Emin	-0.5187931
-3.17158	Dmin Emin7	-0.4757683
-2.17158	Dmin Eninth	-1.267172
-2.130188	Dmin Eseventh	-0.6552054
-2.518368	Dmin Esus4	0.2530736
-2.87055	Dmin F#maj	-0.6922268
-2.694459	Dmin F#min	-0.422886
-3.47261	Dmin F#seventh
-2.518368	Dmin Faug	-0.5736232
-2.995489	Dmin Fdim	-0.5903742
-1.06099	Dmin Fmaj	-0.3231162
-1.538112	Dmin Fmaj6	-0.7056187
-2.87055	Dmin Fmaj7	-0.4254749
-2.17158	Dmin Fmin	-1.010163
-2.17158	Dmin Fseventh	-0.880468
-3.47261	Dmin G#aug
-3.17158	Dmin G#maj	-0.4749697
-0.9514721	Dmin Gmaj	-0.7188796
-3.17158	Dmin Gmaj6
-0.9322807	Dmin Gmin	-0.5415743
-1.96746	Dmin Gmin7	-0.3616217
-2.17158	Dmin Gninth	-0.2769227
-1.709182	Dmin Gseventh	-0.6087934
-2.057637	Dmin Gsus4	0.2944663
-1.96746	Dmin N	-0.3775735
-1.853969	Dmin7 A#maj	-0.3278933
-2.109241	Dmin7 A#maj7	-0.09305766
-2.507181	Dmin7 A#min
-2.507181	Dmin7 A#seventh
-1.72903	Dmin7 Amaj	-0.5643288
-1.529457	Dmin7 Amin	-0.2805967
-2.03006	Dmin7 Amin7	-0.1672208
-1.963113	Dmin7 Aseventh	-0.4377817
-2.808211	Dmin7 Bmaj6
-2.507181	Dmin7 C#aug	-0.4583718
-2.03006	Dmin7 C#maj	-0.3069391
-1.240009	Dmin7 Cmaj	-0.2229164
-1.63212	Dmin7 Cmaj6	-0.3831637
-1.694268	Dmin7 Cmaj7	-0.275451
-2.507181	Dmin7 Cmin
-1.251908	Dmin7 Cmin7	-0.3861448
-2.808211	Dmin7 Cninth
-2.808211	Dmin7 Cseventh
-2.808211	Dmin7 Csus4
-2.206151	Dmin7 D#dim	-0.08427567
-1.808211	Dmin7 D#maj	-0.2876604
-2.507181	Dmin7 D#maj7	-0.4313638
-2.808211	Dmin7 D#min7
-2.808211	Dmin7 D#seventh
-2.109241	Dmin7 Dmaj	-0.5025912
-2.206151	Dmin7 Dmaj6	-0.6768825
-1.63212	Dmin7 Dmin	-0.2689091
-1.002031	Dmin7 Dmin7	-0.4854829
-2.03006	Dmin7 Emaj	-0.35193
-2.03006	Dmin7 Emin	-0.8378707
-1.694268	Dmin7 Emin7	-0.3516998
-2.33109	Dmin7 Eseventh	-0.2150544
-2.03006	Dmin7 Faug	-0.3366148
-1.264143	Dmin7 Fmaj	-0.2912982
-2.03006	Dmin7 Fmaj7	-0.4193382
-2.507181	Dmin7 Fmin	-0.4493363
-2.206151	Dmin7 Fseventh	-0.5436624
-2.33109	Dmin7 G#dim	-0.2061968
-1.604091	Dmin7 G#maj	-0.7376456
-2.808211	Dmin7 G#seventh
-1.00887	Dmin7 Gmaj	-0.3588845
-1.289697	Dmin7 Gmaj6	-0.8117523
-1.662083	Dmin7 Gmin	-0.8419311
-1.662083	Dmin7 Gmin7	-0.2569952
-2.507181	Dmin7 Gninth	-0.2646492
-1.083935	Dmin7 Gseventh	-0.2183003
-1.361053	Dmin7 Gsus4	-0.6303298
-2.206151	Dmin7 N
-1.748188	Dninth </s>
-1.447158	Dninth Amaj	-0.1312057
-1.526339	Dninth Amin	-0.2011846
-2.225309	Dninth Amin7
-1.924279	Dninth Bmaj	-0.4732747
-1.271067	Dninth Cmaj	-0.1864709
-1.748188	Dninth Cmin	-0.5991246
-1.526339	Dninth Cninth	-0.762357
-1.623249	Dninth Dmaj	-0.2942013
-1.748188	Dninth Dmin7	-0.5938784
-1.924279	Dninth Dninth	-0.2646492
-1.924279	Dninth Dseventh	-0.3218136
-1.924279	Dninth Emin	-0.4493363
-1.924279	Dninth Eseventh
-1.526339	Dninth Fmaj7	-0.7323938
-0.9242793	Dninth G#seventh	-0.858507
-0.4123959	Dninth Gmaj	-0.2245421
-1.623249	Dninth Gmin	-0.1455425
-2.225309	Dninth Gseventh
-1.623249	Dninth N	-0.1221467
-3.087781	Dseventh </s>
-2.184691	Dseventh A#maj	-0.3338454
-1.173968	Dseventh Amaj	-0.04624331
-1.809028	Dseventh Amin	-0.4418085
-1.973838	Dseventh Amin7	-0.3650725
-1.242683	Dseventh Aseventh	-0.4083283
-3.087781	Dseventh Bmaj6
-2.485721	Dseventh Bmin
-2.242683	Dseventh Bmin7	-0.1922231
-2.184691	Dseventh Bseventh	-0.3367082
-1.809028	Dseventh C#aug	-0.9480822
-2.61066	Dseventh C#maj	-0.2214277
-3.087781	Dseventh C#maj7
-2.61066	Dseventh C#min	-0.2180288
-1.973838	Dseventh C#seventh	-0.3155536
-3.087781	Dseventh C#sus4
-1.70757	Dseventh Cmaj	0.05462998
-3.087781	Dseventh Cmaj6
-2.046389	Dseventh Cmaj7	-0.3149064
-2.786752	Dseventh Cninth	-0.4719201
-1.786751	Dseventh Cseventh	-0.7115591
-2.485721	Dseventh D#dim	-0.1224334
-2.242683	Dseventh D#maj	-0.1399269
-3.087781	Dseventh D#maj6
-3.087781	Dseventh D#seventh
-1.569268	Dseventh Dmaj	-0.367335
-2.388811	Dseventh Dmaj6	-0.2937916
-2.61066	Dseventh Dmin7	-0.2136671
-2.61066	Dseventh Dninth
-1.30963	Dseventh Dseventh	-0.3360728
-3.087781	Dseventh Dsus4
-1.745359	Dseventh Emaj	-0.5260461
-2.046389	Dseventh Emin	-0.3431335
-2.786752	Dseventh Emin7
-3.087781	Dseventh Eninth
-2.133539	Dseventh Eseventh	-0.2631308
-2.388811	Dseventh Esus4	0.05391693
-2.388811	Dseventh F#maj	-0.490002
-1.765562	Dseventh F#min	-0.4677639
-2.485721	Dseventh F#min7	-0.1434179
-2.786752	Dseventh F#seventh	-0.4377817
-1.745359	Dseventh Fmaj	-0.2588285
-2.485721	Dseventh Fmin	-0.2997115
-1.883661	Dseventh Fseventh	-0.5516652
-3.087781	Dseventh Fsus4
-3.087781	Dseventh G#maj
-2.786752	Dseventh G#min7	-0.4744112
-0.5219336	Dseventh Gmaj	0.0892747
-2.61066	Dseventh Gmaj7	-0.5749078
-1.062476	Dseventh Gmin	-0.2500459
-1.973838	Dseventh Gmin7	-0.315454
-2.30963	Dseventh Gninth	-0.1311946
-1.153283	Dseventh Gseventh	-0.3121472
-2.046389	Dseventh Gsus4	-0.247113
-1.809028	Dseventh N	-0.1504043
-1.993436	Dsus4 Amaj
-2.294466	Dsus4 Bmin
-0.06915694	Dsus4 Dmaj	-0.2733541
-1.993436	Dsus4 Dmin
-1.340224	Dsus4 Dseventh	-0.123072
-2.294466	Dsus4 Emaj
-1.692406	Dsus4 Gmaj	-0.1379292
-1.993436	Dsus4 N
-1.851258	Eaug A#dim	-0.4534266
-1.851258	Eaug A#maj	-0.4366156
-1.675167	Eaug A#min	-0.218766
-1.550228	Eaug Amaj	-0.1257964
-1.675167	Eaug Amaj7	-0.2178826
-0.8970158	Eaug Amin	-0.6203139
-1.073107	Eaug Amin7	-0.5194033
-1.30719	Eaug C#maj	-0.5213738
-1.453318	Eaug C#min	-0.2017732
-1.851258	Eaug C#min7	-0.4730497
-2.152288	Eaug Cmaj
-1.374137	Eaug D#maj	-0.8380982
-1.851258	Eaug Dmaj	-0.4617009
-1.675167	Eaug Emaj	-0.2015171
-1.550228	Eaug Emin	-0.2794382
-2.152288	Eaug F#min
-1.550228	Eaug F#seventh	-0.6910931
-1.374137	Eaug Fmaj	-0.1563863
-1.550228	Eaug Fmaj6	-0.6756219
-1.675167	Eaug Fmin	-0.6005948
-1.249198	Eaug Fseventh	-0.9241272
-1.374137	Eaug G#maj	-0.4056371
-1.374137	Eaug G#seventh	-0.5611637
-1.374137	Eaug Gmaj	-0.5948891
-1.575957	Edim A#dim	-0.5402076
-1.575957	Edim Amaj	-0.5897245
-1.752048	Edim Aseventh	-0.4377817
-1.752048	Edim Bmaj	-0.4728075
-1.752048	Edim C#maj
-2.053078	Edim C#seventh
-1.274927	Edim D#maj	-0.5835326
-1.752048	Edim D#min	-0.4493363
-0.9069504	Edim D#min7	-0.5549778
-1.274927	Edim Dmaj	-0.4093039
-1.354108	Edim Emaj	-0.3269627
-2.053078	Edim F#min
-2.053078	Edim F#min7
-1.149988	Edim Fdim	-0.6001341
-0.8769872	Edim Fmaj	-0.4775699
-0.8769872	Edim Fmin	-0.5132651
-1.451018	Edim G#maj	-0.03194055
-2.053078	Edim Gmin
-1.575957	Edim N	-0.4231767
-2.536558	Emaj </s>
-3.71265	Emaj A#dim	-0.4693658
-2.633468	Emaj A#maj	-0.2435187
-3.41162	Emaj A#min	-0.690402
-3.41162	Emaj A#ninth	-0.2932046
-3.41162	Emaj A#seventh	-0.2985391
-3.31471	Emaj A#sus4	0.05391693
-3.41162	Emaj Aaug	-0.6834022
-0.6360093	Emaj Amaj	-0.1833864
-2.39043	Emaj Amaj6	-0.4376982
-2.633468	Emaj Amaj7	-0.4592097
-1.552782	Emaj Amin	-0.4385751
-3.11059	Emaj Amin7	-0.4999976
-3.168582	Emaj Aninth	-0.4322246
-2.054638	Emaj Aseventh	-0.4607308
-3.41162	Emaj Asus4	0.5310382
-3.01368	Emaj Baug	-0.466805
-0.7625284	Emaj Bmaj	-0.3203102
-3.11059	Emaj Bmaj6	-0.1787607
-3.536558	Emaj Bmaj7	-0.5954294
-1.934498	Emaj Bmin	-0.6026081
-2.80956	Emaj Bmin7	-0.411149
-2.433896	Emaj Bninth	-0.3927389
-2.162421	Emaj Bseventh	-0.4641563
-4.01368	Emaj C#aug
-1.812283	Emaj C#maj	-0.3066447
-1.339738	Emaj C#min	-0.4447511
-2.132866	Emaj C#min7	-0.2882024
-3.235528	Emaj C#ninth	-0.3723859
-2.41162	Emaj C#seventh	-0.3149241
-4.01368	Emaj C#sus4
-3.01368	Emaj Caug	-0.7364526
-2.105195	Emaj Cmaj	-0.3188396
-3.71265	Emaj Cmin
-3.536558	Emaj Cninth	-0.5942347
-3.536558	Emaj Cseventh	-0.220783
-4.01368	Emaj D#aug
-3.41162	Emaj D#dim	-0.6752753
-2.00508	Emaj D#maj	-0.2948124
-2.306109	Emaj D#min	-0.3707472
-3.01368	Emaj D#min7	-0.1836056
-3.41162	Emaj D#ninth	-0.486498
-2.671257	Emaj D#seventh	-0.3594209
-4.01368	Emaj D#sus4
-3.536558	Emaj Ddim	-0.1644055
-1.302717	Emaj Dmaj	-0.416241
-3.71265	Emaj Dmaj6	-0.4422595
-3.31471	Emaj Dmaj7	-0.7715207
-2.734926	Emaj Dmin	-0.3130755
-3.536558	Emaj Dmin7	-0.2191386
-2.482201	Emaj Dseventh	-0.3143423
-3.235528	Emaj Dsus4	0.4060995
-3.536558	Emaj Eaug	-0.1629821
-3.01368	Emaj Edim	-0.2452287
-1.045197	Emaj Emaj	-0.0352205
-3.168582	Emaj Emaj6	-0.2283796
-1.980256	Emaj Emaj7	-0.5213432
-2.162421	Emaj Emin	-0.5579545
-4.01368	Emaj Emin7
-3.059437	Emaj Eninth	-0.251812
-1.806854	Emaj Eseventh	-0.3117301
-2.242828	Emaj Esus4	-0.1246631
-3.31471	Emaj F#aug	-0.3555675
-3.41162	Emaj F#dim	-0.6670809
-1.050364	Emaj F#maj	-0.4118493
-3.235528	Emaj F#maj6	-0.1488784
-1.457377	Emaj F#min	-0.2524326
-2.250252	Emaj F#min7	-0.5133184
-3.235528	Emaj F#ninth	-0.4128471
-2.200766	Emaj F#seventh	-0.300073
-2.934499	Emaj F#sus4	-0.2818751
-2.837589	Emaj Fdim	-0.7954186
-2.132866	Emaj Fmaj	-0.1465344
-4.01368	Emaj Fmin
-3.71265	Emaj Fmin7
-3.31471	Emaj Fseventh	-0.1441976
-3.11059	Emaj G#aug	-0.5292543
-3.71265	Emaj G#dim	-0.4152689
-2.00508	Emaj G#maj	-0.7838675
-1.796196	Emaj G#min	-0.4450805
-2.598706	Emaj G#min7	-0.3486409
-2.783231	Emaj G#seventh	-0.936047
-3.168582	Emaj G#sus4	0.3549469
-3.536558	Emaj Gaug	-0.5927865
-3.31471	Emaj Gdim	-0.3105335
-1.780684	Emaj Gmaj	-0.3707873
-2.899736	Emaj Gmaj6	-0.4834556
-3.168582	Emaj Gmin	-0.273245
-3.235528	Emaj Gseventh	-0.2193579
-1.728122	Emaj N	-0.4535125
-2.559907	Emaj6 </s>
-2.559907	Emaj6 A#min
-0.8040318	Emaj6 Amaj	-0.396109
-1.518514	Emaj6 Amaj6	-0.5105007
-1.258877	Emaj6 Amaj7	-0.3164151
-1.860937	Emaj6 Aseventh	-0.6228436
-1.112749	Emaj6 Bmaj	-0.4384902
-2.559907	Emaj6 Bmaj6
-2.559907	Emaj6 Bmin
-1.217484	Emaj6 Bmin7	-0.587523
-1.480725	Emaj6 C#maj	-0.6279927
-1.383815	Emaj6 C#min	-0.366059
-1.329458	Emaj6 C#min7	-0.5142151
-2.258877	Emaj6 C#seventh
-2.559907	Emaj6 Cmaj
-2.559907	Emaj6 Cmin
-1.957847	Emaj6 D#maj6	-0.4662179
-1.860937	Emaj6 Dmaj	-0.1995511
-2.258877	Emaj6 Dmaj6	-0.4686646
-1.258877	Emaj6 Emaj	-0.2833582
-1.304634	Emaj6 Emaj6	-0.5678459
-2.559907	Emaj6 Emaj7
-1.355787	Emaj6 Emin	-0.7250471
-2.082785	Emaj6 Eseventh	-0.06654111
-1.281153	Emaj6 F#maj	-0.2611245
-1.714809	Emaj6 F#maj6	-0.2925734
-1.860937	Emaj6 F#min	-0.7360998
-1.559907	Emaj6 F#min7	-0.440865
-2.258877	Emaj6 F#ninth	-0.2646492
-1.714809	Emaj6 F#seventh	0.08275698
-1.714809	Emaj6 Fmaj6	-0.3845761
-2.559907	Emaj6 G#maj
-1.656817	Emaj6 N	-0.3411991
-2.217484	Emaj7 </s>
-2.041393	Emaj7 A#dim	-0.5903742
-1.819544	Emaj7 Amaj	-0.08881282
-1.217484	Emaj7 Amaj7	-0.5011957
-1	Emaj7 Bmaj	-0.2584057
-2.518514	Emaj7 Bmaj6
-1.518514	Emaj7 Bmaj7	-0.7083436
-2.518514	Emaj7 Bninth
-1.819544	Emaj7 Bseventh	-0.5419339
-2.217484	Emaj7 C#maj	-0.4732747
-0.8464161	Emaj7 C#min	-0.5966878
-1.056116	Emaj7 C#min7	-0.3991091
-2.217484	Emaj7 C#seventh	-0.4454821
-2.518514	Emaj7 D#maj
-1.564271	Emaj7 D#min	-0.3202155
-1.673416	Emaj7 D#min7	-0.8780677
-1.740363	Emaj7 D#sus4	-0.01302981
-1.819544	Emaj7 Emaj	-0.2588117
-0.9387304	Emaj7 Emaj6	-0.5326035
-1.314394	Emaj7 Emaj7	-0.4195052
-2.518514	Emaj7 Emin
-1.673416	Emaj7 Eseventh	-0.1616615
-1.819544	Emaj7 F#maj	-0.7371372
-2.518514	Emaj7 F#maj6
-2.041393	Emaj7 F#min	-0.5946839
-1.564271	Emaj7 F#min7	-0.9911296
-1.439333	Emaj7 F#seventh	-0.265044
-2.217484	Emaj7 G#maj	-0.4647858
-1.615424	Emaj7 G#min	-0.05891784
-2.041393	Emaj7 G#min7	-0.2122884
-1.740363	Emaj7 N	-0.2470855
-2.995489	Emin </s>
-3.47261	Emin A#aug
-3.17158	Emin A#maj	-0.4749697
-0.9514721	Emin Amaj	-0.7188796
-3.17158	Emin Amaj6
-0.9322807	Emin Amin	-0.5415743
-1.96746	Emin Amin7	-0.3616217
-2.17158	Emin Aninth	-0.2769227
-1.709182	Emin Aseventh	-0.6087934
-2.057637	Emin Asus4	0.2944663
-2.130188	Emin Baug	-0.5501422
-1.207792	Emin Bmaj	-0.3529913
-1.182576	Emin Bmin	-0.3230419
-1.881546	Emin Bseventh	-0.9258142
-2.77364	Emin Bsus4	0.05391693
-3.47261	Emin C#dim
-2.995489	Emin C#maj	-0.4878725
-3.17158	Emin C#min	-0.4698939
-3.17158	Emin C#min7
-3.47261	Emin C#ninth
-2.694459	Emin C#seventh	-0.4344019
-1.051006	Emin Cmaj	-0.5674877
-3.17158	Emin Cmaj6
-2.130188	Emin Cmaj7	-0.3588574
-2.150391	Emin Cmin	-0.5361238
-3.47261	Emin Cmin7
-2.77364	Emin Cninth	-0.5656792
-2.150391	Emin Cseventh	-0.7349095
-2.47261	Emin D#aug	-0.7398062
-2.431217	Emin D#dim	-0.6841142
-2.627512	Emin D#maj
-1.892827	Emin D#min	-0.8134915
-3.17158	Emin Daug	-0.4583718
-1.03486	Emin Dmaj	-0.2450745
-3.47261	Emin Dmaj6
-3.17158	Emin Dmaj7	-0.455537
-1.782414	Emin Dmin	-0.4074863
-2.518368	Emin Dmin7	-0.6940795
-2.431217	Emin Dseventh	-0.4815145
-2.77364	Emin Edim	-0.3442821
-2.26849	Emin Emaj	-0.200772
-1.314248	Emin Emin	-0.2703753
-1.981248	Emin Emin7	-0.2783163
-2.87055	Emin Eseventh	-0.4692443
-1.701758	Emin F#maj	-0.5172702
-1.77364	Emin F#min	-0.5187931
-3.17158	Emin F#min7	-0.4757683
-2.17158	Emin F#ninth	-1.267172
-2.130188	Emin F#seventh	-0.6552054
-2.518368	Emin F#sus4	0.2530736
-3.17158	Emin Fdim	-0.4693658
-1.77364	Emin Fmaj	-0.3739272
-2.431217	Emin Fmaj7	-0.490937
-2.995489	Emin Fmin
-2.87055	Emin G#maj	-0.6922268
-2.694459	Emin G#min	-0.422886
-3.47261	Emin G#seventh
-2.518368	Emin Gaug	-0.5736232
-2.995489	Emin Gdim	-0.5903742
-1.06099	Emin Gmaj	-0.3231162
-1.538112	Emin Gmaj6	-0.7056187
-2.87055	Emin Gmaj7	-0.4254749
-2.17158	Emin Gmin	-1.010163
-2.17158	Emin Gseventh	-0.880468
-1.96746	Emin N	-0.3775735
-2.33109	Emin7 A#dim	-0.2061968
-1.604091	Emin7 A#maj	-0.7376456
-2.808211	Emin7 A#seventh
-1.00887	Emin7 Amaj	-0.3588845
-1.289697	Emin7 Amaj6	-0.8117523
-1.662083	Emin7 Amin	-0.8419311
-1.662083	Emin7 Amin7	-0.2569952
-2.507181	Emin7 Aninth	-0.2646492
-1.083935	Emin7 Aseventh	-0.2183003
-1.361053	Emin7 Asus4	-0.6303298
-1.72903	Emin7 Bmaj	-0.5643288
-1.529457	Emin7 Bmin	-0.2805967
-2.03006	Emin7 Bmin7	-0.1672208
-1.963113	Emin7 Bseventh	-0.4377817
-2.808211	Emin7 C#maj6
-1.853969	Emin7 Cmaj	-0.3278933
-2.109241	Emin7 Cmaj7	-0.09305766
-2.507181	Emin7 Cmin
-2.507181	Emin7 Cseventh
-2.507181	Emin7 D#aug	-0.4583718
-2.03006	Emin7 D#maj	-0.3069391
-1.240009	Emin7 Dmaj	-0.2229164
-1.63212	Emin7 Dmaj6	-0.3831637
-1.694268	Emin7 Dmaj7	-0.275451
-2.507181	Emin7 Dmin
-1.251908	Emin7 Dmin7	-0.3861448
-2.808211	Emin7 Dninth
-2.808211	Emin7 Dseventh
-2.808211	Emin7 Dsus4
-2.109241	Emin7 Emaj	-0.5025912
-2.206151	Emin7 Emaj6	-0.6768825
-1.63212	Emin7 Emin	-0.2689091
-1.002031	Emin7 Emin7	-0.4854829
-2.03006	Emin7 F#maj	-0.35193
-2.03006	Emin7 F#min	-0.8378707
-1.694268	Emin7 F#min7	-0.3516998
-2.33109	Emin7 F#seventh	-0.2150544
-2.206151	Emin7 Fdim	-0.08427567
-1.808211	Emin7 Fmaj	-0.2876604
-2.507181	Emin7 Fmaj7	-0.4313638
-2.808211	Emin7 Fmin7
-2.808211	Emin7 Fseventh
-2.03006	Emin7 Gaug	-0.3366148
-1.264143	Emin7 Gmaj	-0.2912982
-2.03006	Emin7 Gmaj7	-0.4193382
-2.507181	Emin7 Gmin	-0.4493363
-2.206151	Emin7 Gseventh	-0.5436624
-2.206151	Emin7 N
-1.748188	Eninth </s>
-0.9242793	Eninth A#seventh	-0.858507
-0.4123959	Eninth Amaj	-0.2245421
-1.623249	Eninth Amin	-0.1455425
-2.225309	Eninth Aseventh
-1.447158	Eninth Bmaj	-0.1312057
-1.526339	Eninth Bmin	-0.2011846
-2.225309	Eninth Bmin7
-1.924279	Eninth C#maj	-0.4732747
-1.271067	Eninth Dmaj	-0.1864709
